{"learner":{"attributes":{"best_iteration":"12","best_score":"4.22968","scikit_learn":"{\"n_estimators\": 100, \"objective\": \"reg:squarederror\", \"max_depth\": 8, \"learning_rate\": null, \"verbosity\": null, \"booster\": null, \"tree_method\": null, \"gamma\": null, \"min_child_weight\": null, \"max_delta_step\": null, \"subsample\": null, \"colsample_bytree\": null, \"colsample_bylevel\": null, \"colsample_bynode\": null, \"reg_alpha\": null, \"reg_lambda\": null, \"scale_pos_weight\": null, \"base_score\": null, \"missing\": NaN, \"num_parallel_tree\": null, \"kwargs\": {}, \"random_state\": null, \"n_jobs\": null, \"monotone_constraints\": null, \"interaction_constraints\": null, \"importance_type\": \"gain\", \"gpu_id\": null, \"validate_parameters\": null, \"n_features_in_\": 13, \"evals_result_\": {\"validation_0\": {\"rmse\": [9.908633, 7.492548, 5.811004, 4.889962, 4.542055, 4.409575, 4.351294, 4.374913, 4.357669, 4.355254, 4.319759, 4.288871, 4.22968, 4.237662, 4.260209, 4.286521, 4.272385, 4.266366, 4.25097, 4.252143, 4.253692, 4.244032, 4.249319]}}, \"best_score\": 4.22968, \"best_iteration\": 12, \"best_ntree_limit\": 13, \"type\": \"XGBRegressor\"}"},"gradient_booster":{"model":{"gbtree_model_param":{"num_trees":"23","size_leaf_vector":"0"},"tree_info":[0,0,0,0,0,0,0,0,0,0,0,0,0,0,0,0,0,0,0,0,0,0,0],"trees":[{"base_weights":[2.3775063E1,2.0023746E1,3.443398E1,2.2242E1,1.5387E1,3.0257534E1,4.3158066E1,3.7125E1,2.1826904E1,1.6859211E1,1.0296E1,3.1022858E1,9.3E0,4.388333E1,1.07E1,1.9734177E1,2.3032774E1,1.05375E1,2.25E0,4.2333336E0,1.0918181E1],"categories":[],"categories_nodes":[],"categories_segments":[],"categories_sizes":[],"default_left":[true,true,true,true,true,true,true,false,true,false,true,false,false,false,false,false,false,true,false,false,false],"id":0,"left_children":[1,3,5,7,9,11,13,-1,15,-1,17,-1,-1,-1,-1,-1,-1,19,-1,-1,-1],"loss_changes":[1.5344484E4,2.7331172E3,2.4470156E3,4.2525E2,5.759219E2,8.8235156E2,2.6021094E2,0E0,4.2609375E1,0E0,2.4868408E1,0E0,0E0,0E0,0E0,0E0,0E0,1.1376953E1,0E0,0E0,0E0],"parents":[2147483647,0,0,1,1,2,2,3,3,4,4,5,5,6,6,8,8,10,10,17,17],"right_children":[2,4,6,8,10,12,14,-1,16,-1,18,-1,-1,-1,-1,-1,-1,20,-1,-1,-1],"split_conditions":[6.6759996E0,1.44E1,7.4370003E0,1.42155E0,5.58255E0,8.181126E0,2.7422352E0,1.1137501E1,6.0985003E0,5.0577636E0,3.1372799E1,9.306858E0,2.7900002E0,1.3165E1,3.21E0,5.9202533E0,6.9098325E0,9.035E1,6.75E-1,1.2700001E0,3.2754545E0],"split_indices":[5,12,5,7,0,0,0,0,5,0,0,0,0,0,0,0,0,6,0,0,0],"split_type":[0,0,0,0,0,0,0,0,0,0,0,0,0,0,0,0,0,0,0,0,0],"sum_hessian":[4E2,2.98E2,1.02E2,1.99E2,9.9E1,7.2E1,3E1,3E0,1.96E2,7.5E1,2.4E1,6.9E1,3E0,2.9E1,1E0,7.8E1,1.18E2,2.3E1,1E0,2E0,2.1E1],"tree_param":{"num_deleted":"0","num_feature":"13","num_nodes":"21","size_leaf_vector":"0"}},{"base_weights":[1.6798946E1,1.459461E1,2.6503433E1,1.753904E1,1.2149662E1,2.698494E1,6.273333E0,1.6943764E1,3.1056128E1,1.3235875E1,8.524475E0,2.3488432E1,3.073887E1,1.5678325E1,1.8983912E1,1.0416223E1,7.121573E0,1.5749166E1,4.545084E0,7.239308E0,1.9125E0],"categories":[],"categories_nodes":[],"categories_segments":[],"categories_sizes":[],"default_left":[true,true,true,true,true,true,false,true,false,false,true,false,false,true,false,false,true,false,false,false,false],"id":1,"left_children":[1,3,5,7,9,11,-1,13,-1,-1,15,-1,-1,17,-1,-1,19,-1,-1,-1,-1],"loss_changes":[8.1913594E3,2.1553672E3,5.418008E2,6.566094E2,6.077754E2,2.0991406E2,0E0,7.154297E1,0E0,0E0,4.5247314E1,0E0,0E0,2.5546875E0,0E0,0E0,3.9401855E0,0E0,0E0,0E0,0E0],"parents":[2147483647,0,0,1,1,2,2,3,3,4,4,5,5,7,7,10,10,13,13,16,16],"right_children":[2,4,6,8,10,12,-1,14,-1,-1,16,-1,-1,18,-1,-1,20,-1,-1,-1,-1],"split_conditions":[6.941E0,1.0139999E1,1.3073931E1,4.727045E0,1.926E1,7.4370003E0,1.882E0,6.543E0,9.316838E0,3.9707627E0,1.9650002E1,7.04653E0,9.221662E0,6.539E0,5.6951737E0,3.124867E0,3.1372799E1,4.72475E0,1.3635253E0,2.1717925E0,5.7375E-1],"split_indices":[5,12,0,0,12,5,0,5,0,0,10,0,0,5,0,0,0,0,0,0,0],"split_type":[0,0,0,0,0,0,0,0,0,0,0,0,0,0,0,0,0,0,0,0,0],"sum_hessian":[4E2,3.28E2,7.2E1,1.46E2,1.82E2,7E1,2E0,1.42E2,4E0,1.38E2,4.4E1,4E1,3E1,9.3E1,4.9E1,1.6E1,2.8E1,9.2E1,1E0,2.7E1,1E0],"tree_param":{"num_deleted":"0","num_feature":"13","num_nodes":"21","size_leaf_vector":"0"}},{"base_weights":[1.1881685E1,1.9153412E1,1.036564E1,2.4451778E1,1.719252E1,1.2670049E1,8.698767E0,1.4725743E1,1.9999079E1,1.782995E1,1.1847194E1,6.194674E0,9.625037E0,1.83838E1,4.484169E0,9.305595E0,1.2539675E1,7.9332833E0,5.484553E0,1.0189439E1,6.8437176E0,2.167292E0,5.679165E0,1.0533148E1,7.732958E0,2.8544922E0,1.0582375E1,1.0632529E1,2.8586845E0],"categories":[],"categories_nodes":[],"categories_segments":[],"categories_sizes":[],"default_left":[true,true,true,false,true,true,true,false,false,true,true,true,true,false,false,false,false,false,true,true,false,false,false,true,false,false,true,false,false],"id":2,"left_children":[1,3,5,-1,7,9,11,-1,-1,13,15,17,19,-1,-1,-1,-1,-1,21,23,-1,-1,-1,25,-1,-1,27,-1,-1],"loss_changes":[4.2221953E3,2.860996E2,1.1727344E3,0E0,7.242578E1,3.746914E2,3.9731152E2,0E0,0E0,4.3220215E1,9.80332E1,2.5628418E1,1.5317578E2,0E0,0E0,0E0,0E0,0E0,1.5451416E1,1.6487305E1,0E0,0E0,0E0,7.213867E0,0E0,0E0,7.567383E0,0E0,0E0],"parents":[2147483647,0,0,1,1,2,2,4,4,5,5,6,6,9,9,10,10,11,11,12,12,18,18,19,19,23,23,26,26],"right_children":[2,4,6,-1,8,10,12,-1,-1,14,16,18,20,-1,-1,-1,-1,-1,22,24,-1,-1,-1,26,-1,-1,28,-1,-1],"split_conditions":[5.1549997E0,3.20745E0,9.7E0,7.3355336E0,7.1415E0,2.6191E0,1.9832001E0,4.417723E0,5.999724E0,8.589E0,6.1445E0,1.5965E1,2.095E1,5.5151405E0,1.3452507E0,2.7916787E0,3.7619026E0,2.379985E0,9.155E1,6.32805E0,2.0531154E0,6.501877E-1,1.7037495E0,5.1584997E0,2.3198874E0,8.563477E-1,3.0369999E1,3.189759E0,8.576054E-1],"split_indices":[12,7,12,0,5,7,7,0,0,5,5,12,10,0,0,0,0,0,6,7,0,0,0,5,0,0,12,0,0],"split_type":[0,0,0,0,0,0,0,0,0,0,0,0,0,0,0,0,0,0,0,0,0,0,0,0,0,0,0,0,0],"sum_hessian":[4E2,6.7E1,3.33E2,1.5E1,5.2E1,1.37E2,1.96E2,3.1E1,2.1E1,1.6E1,1.21E2,5.5E1,1.41E2,1.5E1,1E0,2.9E1,9.2E1,1.3E1,4.2E1,1.15E2,2.6E1,3E0,3.9E1,9.8E1,1.7E1,1E0,9.7E1,9.6E1,1E0],"tree_param":{"num_deleted":"0","num_feature":"13","num_nodes":"29","size_leaf_vector":"0"}},{"base_weights":[8.429842E0,7.237228E0,1.3689296E1,8.74435E0,6.11629E0,1.4010332E1,4.648838E0,8.316481E0,1.8462389E1,4.3813496E0,6.7462935E0,1.2137506E1,1.638609E1,7.5628333E0,9.469484E0,4.728763E0,2.7713377E0,7.246273E0,5.114511E0,7.605164E0,1.9823699E0,2.768033E0,9.551431E0,5.4969287E0,3.9558067E0,3.3835034E0,7.01131E-1,7.586108E0,5.634792E0,3.2320108E0,5.8135304E0,1.8530712E0,5.8166137E0,1.6326689E0,4.086833E0,7.0681E-1,3.6297388E0,1.0851736E0,-2.2549844E-1,1.2644997E0,6.0220895E0,1.5838562E0,4.047724E0],"categories":[],"categories_nodes":[],"categories_segments":[],"categories_sizes":[],"default_left":[true,true,true,true,true,true,false,true,false,true,true,false,false,true,true,true,true,true,true,false,false,false,false,true,true,true,true,false,false,false,false,false,true,false,false,false,true,false,false,false,false,false,false],"id":3,"left_children":[1,3,5,7,9,11,-1,13,-1,15,17,-1,-1,19,21,23,25,27,29,-1,-1,-1,-1,31,33,35,37,-1,-1,-1,-1,-1,39,-1,-1,-1,41,-1,-1,-1,-1,-1,-1],"loss_changes":[2.4161992E3,5.0232617E2,1.467373E2,4.2026953E2,1.8030127E2,1.1257031E2,0E0,4.482422E1,0E0,1.7099365E1,7.634277E1,0E0,0E0,5.2387695E0,4.7021484E-1,3.7868652E0,1.2835434E1,1.4208496E1,2.858319E1,0E0,0E0,0E0,0E0,1.1354248E1,9.373779E-1,3.366333E0,1.6681657E0,0E0,0E0,0E0,0E0,0E0,8.286011E0,0E0,0E0,0E0,4.3017578E-1,0E0,0E0,0E0,0E0,0E0,0E0],"parents":[2147483647,0,0,1,1,2,2,3,3,4,4,5,5,7,7,9,9,10,10,13,13,14,14,15,15,16,16,17,17,18,18,23,23,24,24,25,25,26,26,32,32,36,36],"right_children":[2,4,6,8,10,12,-1,14,-1,16,18,-1,-1,20,22,24,26,28,30,-1,-1,-1,-1,32,34,36,38,-1,-1,-1,-1,-1,40,-1,-1,-1,42,-1,-1,-1,-1,-1,-1],"split_conditions":[6.941E0,9.715E0,6.5900004E-1,4.727045E0,1.9832001E0,7.4795E0,1.3946514E0,6.543E0,5.538717E0,2.8805E1,2.055E1,3.6412518E0,4.915827E0,6.539E0,4.005E-1,3.8316498E2,5.148E0,6.0163E0,3.76805E2,2.2815492E0,5.94711E-1,8.3040994E-1,2.8654294E0,1.10024994E2,5.213E0,2.941E1,6.965E-1,2.2758327E0,1.6904377E0,9.696033E-1,1.7440592E0,5.559214E-1,8.85E1,4.8980066E-1,1.2260499E0,2.12043E-1,3.82315E2,3.255521E-1,-6.7649536E-2,3.7934992E-1,1.8066269E0,4.7515687E-1,1.2143172E0],"split_indices":[5,12,4,0,7,5,0,5,0,12,10,0,0,5,4,11,5,7,11,0,0,0,0,11,5,12,4,0,0,0,0,0,6,0,0,0,11,0,0,0,0,0,0],"split_type":[0,0,0,0,0,0,0,0,0,0,0,0,0,0,0,0,0,0,0,0,0,0,0,0,0,0,0,0,0,0,0,0,0,0,0,0,0,0,0,0,0,0,0],"sum_hessian":[4E2,3.28E2,7.2E1,1.37E2,1.91E2,6.9E1,3E0,1.33E2,4E0,5.3E1,1.38E2,4.2E1,2.7E1,8.5E1,4.8E1,4.2E1,1.1E1,1.03E2,3.5E1,8.4E1,1E0,1E0,4.7E1,1.8E1,2.4E1,8E0,3E0,8.2E1,2.1E1,1.1E1,2.4E1,2E0,1.6E1,2E0,2.2E1,1E0,7E0,2E0,1E0,1E0,1.5E1,2E0,5E0],"tree_param":{"num_deleted":"0","num_feature":"13","num_nodes":"43","size_leaf_vector":"0"}},{"base_weights":[5.989068E0,9.710683E0,5.088904E0,8.858653E0,1.401753E1,4.821971E0,8.723454E0,6.6719494E0,9.647208E0,5.2621083E0,3.496235E0,9.131766E0,3.2296581E0,7.057224E0,2.0078938E0,9.77437E0,1.8988934E0,1.1126496E1,5.133896E0,4.780548E0,2.6123586E0,2.7774303E0,7.397351E0,3.438691E0,9.984203E0,8.406456E0,4.957805E0,4.862998E0,1.1535225E0,1.3917679E0,2.6899273E0,7.621259E0,1.9074087E0,2.3438187E0,1.0107379E1,1.0466719E1,5.2884946E0,5.5537643E0,4.6123204E0,5.0131726E0,1.8403679E0,6.912341E-1,2.7196424E0,3.8739843E0,5.9151664E0,5.1084723E0,3.9806807E0,1.9937633E0,5.1687517E0,2.8974178E0,1.9229146E0,1.6576223E0,4.257943E0,1.0748248E0,5.980089E0,6.063867E0,4.550908E0,-3.282709E-1,4.0509415E0,1.8104038E0,3.1121843E0,7.406397E-1,2.2736878E0],"categories":[],"categories_nodes":[],"categories_segments":[],"categories_sizes":[],"default_left":[true,true,true,true,false,true,true,true,true,true,true,false,false,true,false,true,false,false,true,true,true,false,true,false,true,true,true,true,false,false,true,false,false,false,false,false,false,true,true,true,false,false,true,true,true,true,true,false,false,true,true,false,false,false,false,false,false,false,false,false,false,false,false],"id":4,"left_children":[1,3,5,7,-1,9,11,13,15,17,19,-1,-1,21,-1,23,-1,-1,25,27,29,-1,31,-1,33,35,37,39,-1,-1,41,-1,-1,-1,-1,-1,-1,43,45,47,-1,-1,49,51,53,55,57,-1,-1,59,61,-1,-1,-1,-1,-1,-1,-1,-1,-1,-1,-1,-1],"loss_changes":[1.293959E3,1.5837988E2,2.7324414E2,5.116455E1,0E0,1.5957129E2,1.7614502E1,2.3565613E1,2.7748047E1,1.1355713E2,7.719025E1,0E0,0E0,7.1121216E0,0E0,2.682129E1,0E0,0E0,8.740625E1,3.6609497E0,8.9556885E-1,0E0,6.3602905E0,0E0,1.771875E1,8.88501E0,1.8651855E1,4.3916626E0,0E0,0E0,7.926636E-1,0E0,0E0,0E0,0E0,0E0,0E0,2.20083E1,2.4166016E1,2.8479004E0,0E0,0E0,6.6064453E-1,6.5578003E0,1.2113037E1,1.2888672E1,2.1614258E1,0E0,0E0,2.3031006E0,2.8778267E0,0E0,0E0,0E0,0E0,0E0,0E0,0E0,0E0,0E0,0E0,0E0,0E0],"parents":[2147483647,0,0,1,1,2,2,3,3,5,5,6,6,7,7,8,8,9,9,10,10,13,13,15,15,18,18,19,19,20,20,22,22,24,24,25,25,26,26,27,27,30,30,37,37,38,38,39,39,42,42,43,43,44,44,45,45,46,46,49,49,50,50],"right_children":[2,4,6,8,-1,10,12,14,16,18,20,-1,-1,22,-1,24,-1,-1,26,28,30,-1,32,-1,34,36,38,40,-1,-1,42,-1,-1,-1,-1,-1,-1,44,46,48,-1,-1,50,52,54,56,58,-1,-1,60,62,-1,-1,-1,-1,-1,-1,-1,-1,-1,-1,-1,-1],"split_conditions":[5.4399996E0,8.67E1,7.0835E0,6.785E0,4.2052593E0,1.6085E1,6.685E0,5.24E-1,8.475E1,1.5511E0,6.5402E-1,2.73953E0,9.6889746E-1,4.005E-1,6.023682E-1,3.7386E2,5.6966805E-1,3.337949E0,2.225E2,6.356E0,1.658E1,8.332291E-1,6.764E0,1.0316073E0,7.6E0,1.8099998E1,1.77E1,2.974E1,3.4605676E-1,4.175304E-1,7.99E1,2.286378E0,5.7222265E-1,7.031456E-1,3.032214E0,3.1400158E0,1.5865484E0,4.552E-2,5.935E1,1.6686499E0,5.521104E-1,2.0737024E-1,1.55812E1,6.07025E0,5.208E0,4.46815E0,5.6E0,5.9812903E-1,1.5506256E0,1.24213E0,1.818245E1,4.972867E-1,1.277383E0,3.2244745E-1,1.7940269E0,1.8191602E0,1.3652725E0,-9.8481275E-2,1.2152824E0,5.4312116E-1,9.336553E-1,2.2219191E-1,6.821064E-1],"split_indices":[12,6,5,5,0,12,2,4,6,7,0,0,0,4,0,11,0,0,9,5,12,0,5,0,6,10,10,12,0,0,6,0,0,0,0,0,0,0,6,7,0,0,0,7,5,7,12,0,0,0,0,0,0,0,0,0,0,0,0,0,0,0,0],"split_type":[0,0,0,0,0,0,0,0,0,0,0,0,0,0,0,0,0,0,0,0,0,0,0,0,0,0,0,0,0,0,0,0,0,0,0,0,0,0,0,0,0,0,0,0,0,0,0,0,0,0,0,0,0,0,0,0,0,0,0,0,0,0,0],"sum_hessian":[4E2,7.6E1,3.24E2,6.6E1,1E1,3.04E2,2E1,2E1,4.6E1,2.26E2,7.8E1,1.8E1,2E0,1.8E1,2E0,4.5E1,1E0,3E0,2.23E2,3E1,4.8E1,2E0,1.6E1,2E0,4.3E1,9E0,2.14E2,2.9E1,1E0,4E0,4.4E1,1.5E1,1E0,1E0,4.2E1,4E0,5E0,7.3E1,1.41E2,2.7E1,2E0,1E0,4.3E1,1.5E1,5.8E1,7.5E1,6.6E1,2E0,2.5E1,3.3E1,1E1,3E0,1.2E1,1E0,5.7E1,2.4E1,5.1E1,1E0,6.5E1,7E0,2.6E1,3E0,7E0],"tree_param":{"num_deleted":"0","num_feature":"13","num_nodes":"63","size_leaf_vector":"0"}},{"base_weights":[4.2917347E0,7.7362666E0,3.77902E0,8.338406E0,4.433654E0,4.6546392E0,3.0708983E0,9.314183E0,5.1227803E0,1.2250156E0,5.0826864E0,7.672449E0,4.2272825E0,3.9852636E0,2.7155035E0,8.512694E0,2.6034193E0,6.67941E0,3.9407353E0,4.738368E0,2.612039E0,2.007977E0,3.0239706E0,8.845497E0,1.9267225E0,2.946326E0,7.873497E-1,4.136845E0,2.618598E0,5.194854E0,2.9438667E0,2.9465747E0,9.52211E-1,1.9759655E-1,2.1269212E0,3.1223094E0,9.793317E-1,9.137405E0,2.525344E0,4.1932545E0,7.647731E-1,3.0824852E-1,2.7298257E0,3.2939568E0,9.940934E-1,1.1764493E0,2.7628899E-2,5.5409175E-1,-4.3594456E-1,3.1312091E0,1.6972734E0,3.8564863E0,2.8301609E0,1.2010015E0,-6.4508915E-2,9.465787E0,2.5984144E0,4.29357E0,1.8057293E0,-2.7902985E-1,1.4261894E0,2.801853E0,7.526827E-1,1.4612184E0,3.525515E0,1.4979229E0,2.768083E0,4.476881E-1,3.9852302E0,1.3422716E0,2.9225423E0,1.3329177E0,3.366685E-1,3.7768204E0,4.7854643E0,5.082483E-1,1.9635757E0,3.7378044E0,9.136009E-1,1.855077E0,8.076021E-1,4.110851E0,6.107874E-1,2.9452355E0,7.237463E-1],"categories":[],"categories_nodes":[],"categories_segments":[],"categories_sizes":[],"default_left":[true,true,true,true,true,true,true,false,false,false,false,true,true,true,true,true,true,false,true,true,true,true,true,true,false,false,false,true,true,false,false,true,true,true,true,true,true,true,false,true,true,false,true,false,false,false,false,false,false,true,true,true,true,true,false,false,false,true,true,false,false,false,false,false,true,true,false,false,true,false,true,false,false,false,false,false,false,false,false,false,false,false,false,false,false],"id":5,"left_children":[1,3,5,7,9,11,13,-1,-1,-1,-1,15,17,19,21,23,25,-1,27,29,31,33,35,37,-1,-1,-1,39,41,-1,-1,43,45,47,49,51,53,55,-1,57,59,-1,61,-1,-1,-1,-1,-1,-1,63,65,67,69,71,-1,-1,-1,73,75,-1,-1,-1,-1,-1,77,79,-1,-1,81,-1,83,-1,-1,-1,-1,-1,-1,-1,-1,-1,-1,-1,-1,-1,-1],"loss_changes":[6.7895557E2,6.445044E1,2.033418E2,8.407056E1,1.459874E1,1.674668E2,5.3195312E1,0E0,0E0,0E0,0E0,5.450403E1,7.06438E1,4.2434753E1,2.5573975E1,1.5834717E1,1.7118073E-1,0E0,2.1837036E1,1.1739441E1,8.854935E0,9.700439E0,1.68479E1,2.753662E0,0E0,0E0,0E0,1.7336426E1,4.0410614E0,0E0,0E0,8.255859E0,1.0041299E0,1.1449709E0,1.3671036E1,9.247437E0,1.4658036E0,3.3186035E0,0E0,1.7634766E1,2.4691148E0,0E0,4.5443726E-1,0E0,0E0,0E0,0E0,0E0,0E0,2.7502975E0,2.8980103E0,8.748535E0,5.8363647E0,1.21346E-1,0E0,0E0,0E0,7.598999E0,2.3083305E-1,0E0,0E0,0E0,0E0,0E0,1.57547E0,5.898361E0,0E0,0E0,7.238861E0,0E0,1.1616211E0,0E0,0E0,0E0,0E0,0E0,0E0,0E0,0E0,0E0,0E0,0E0,0E0,0E0,0E0],"parents":[2147483647,0,0,1,1,2,2,3,3,4,4,5,5,6,6,11,11,12,12,13,13,14,14,15,15,16,16,18,18,19,19,20,20,21,21,22,22,23,23,27,27,28,28,31,31,32,32,33,33,34,34,35,35,36,36,37,37,39,39,40,40,42,42,49,49,50,50,51,51,52,52,53,53,57,57,58,58,64,64,65,65,68,68,70,70],"right_children":[2,4,6,8,10,12,14,-1,-1,-1,-1,16,18,20,22,24,26,-1,28,30,32,34,36,38,-1,-1,-1,40,42,-1,-1,44,46,48,50,52,54,56,-1,58,60,-1,62,-1,-1,-1,-1,-1,-1,64,66,68,70,72,-1,-1,-1,74,76,-1,-1,-1,-1,-1,78,80,-1,-1,82,-1,84,-1,-1,-1,-1,-1,-1,-1,-1,-1,-1,-1,-1,-1,-1],"split_conditions":[4.65E0,3.96265E2,9.7E0,5.9736004E0,1.1E1,2.6191E0,3.02E2,2.794255E0,1.5368341E0,3.6750472E-1,1.524806E0,1.884E1,2.225E2,4.4280996E0,5.7695E0,7.4399996E-1,1.38393E0,2.003823E0,1.9650002E1,1.4465E1,7.025E1,3.055E2,9.9E1,9.559999E0,5.7801676E-1,8.8389784E-1,2.3620492E-1,8.57E1,5.7485E0,1.5584562E0,8.8316005E-1,5.04E-1,5.998E0,5.775E1,1.5965E1,1.7599998E1,4.1351004E0,8.742001E0,7.576032E-1,4.045E2,2.129E-1,9.247456E-2,9.46E0,9.881871E-1,2.9822803E-1,3.529348E-1,8.28867E-3,1.6622753E-1,-1.3078338E-1,4.6594E-1,3.32E1,3.3049998E0,3.3839502E2,1.884E1,-1.9352674E-2,2.8397362E0,7.795244E-1,6.4814997E0,6.014E0,-8.370896E-2,4.2785683E-1,8.405559E-1,2.2580482E-1,4.3836552E-1,5E-1,7.3170853E0,8.3042496E-1,1.3430643E-1,6.915E0,4.026815E-1,5.63122E1,3.998753E-1,1.01000555E-1,1.1330462E0,1.4356394E0,1.5247451E-1,5.8907276E-1,1.1213413E0,2.7408028E-1,5.5652314E-1,2.4228065E-1,1.2332553E0,1.8323623E-1,8.835707E-1,2.171239E-1],"split_indices":[12,11,12,7,1,7,9,0,0,0,0,2,9,7,5,4,0,0,10,2,6,9,6,12,0,0,0,6,5,0,0,4,5,6,12,10,7,5,0,9,0,0,12,0,0,0,0,0,0,0,12,2,11,2,0,0,0,5,5,0,0,0,0,0,3,0,0,0,5,0,0,0,0,0,0,0,0,0,0,0,0,0,0,0,0],"split_type":[0,0,0,0,0,0,0,0,0,0,0,0,0,0,0,0,0,0,0,0,0,0,0,0,0,0,0,0,0,0,0,0,0,0,0,0,0,0,0,0,0,0,0,0,0,0,0,0,0,0,0,0,0,0,0,0,0,0,0,0,0,0,0,0,0,0,0,0,0,0,0,0,0,0,0,0,0,0,0,0,0,0,0,0,0],"sum_hessian":[4E2,5E1,3.5E2,4.1E1,9E0,1.54E2,1.96E2,3E1,1.1E1,2E0,7E0,1.7E1,1.37E2,5.2E1,1.44E2,1.4E1,3E0,1.2E1,1.25E2,3.2E1,2E1,4.6E1,9.8E1,1.3E1,1E0,2E0,1E0,1.07E2,1.8E1,2.4E1,8E0,1.6E1,4E0,3E0,4.3E1,9.3E1,5E0,1.2E1,1E0,1.05E2,2E0,1E0,1.7E1,1.3E1,3E0,3E0,1E0,2E0,1E0,1.1E1,3.2E1,2.3E1,7E1,4E0,1E0,1.1E1,1E0,1E2,5E0,1E0,1E0,1.6E1,1E0,3E0,8E0,2.9E1,3E0,1E0,2.2E1,5E0,6.5E1,3E0,1E0,5.3E1,4.7E1,1E0,4E0,7E0,1E0,1.8E1,1.1E1,2.1E1,1E0,6.4E1,1E0],"tree_param":{"num_deleted":"0","num_feature":"13","num_nodes":"85","size_leaf_vector":"0"}},{"base_weights":[3.0796227E0,5.005133E0,2.6139493E0,4.476061E0,7.7726545E0,2.483152E0,4.837618E0,3.8726206E0,6.0230827E0,8.10819E0,2.2086525E0,6.7625995E0,2.4190967E0,5.1205025E0,1.8106569E0,4.105212E0,1.8241585E0,7.126512E0,2.812378E0,7.876081E0,1.7110777E0,2.8544402E0,2.0040054E0,5.2707086E0,1.5088072E0,2.1925287E0,4.459508E0,2.0385542E0,2.688923E-1,7.690606E0,2.8706944E0,4.290338E0,1.0008135E0,3.665568E0,2.299997E0,2.1994984E0,1.2946777E0,1.4665807E0,4.5886297E0,2.169323E-1,1.1897964E0,6.3626113E0,3.347961E0,2.4473915E0,1.3250431E0,2.1099262E0,3.9093318E0,-7.7649164E-1,1.3737794E0,1.1243076E0,4.6574535E0,2.6143975E0,4.037399E0,2.5740516E0,1.2043977E0,1.4394531E0,-8.114338E-2,1.7176472E0,2.48639E0,5.2368865E0,1.2786665E0,1.5083104E0,7.143822E-1,3.944456E0,2.0119038E0,4.1985726E0,1.4022083E0,1.4154407E0,2.7027967E0,4.6654382E-1,1.5739326E0,1.8295803E0,7.5693324E-2,3.1732187E0,1.7636671E0,2.0310242E-1,1.5974703E0,-4.2391014E-1,9.3755394E-1],"categories":[],"categories_nodes":[],"categories_segments":[],"categories_sizes":[],"default_left":[true,true,true,true,true,true,true,true,true,false,false,true,true,true,false,true,true,true,true,false,false,true,true,false,false,false,true,false,false,false,false,false,true,true,true,true,true,false,true,false,false,false,true,true,true,true,true,false,true,false,false,true,true,true,false,true,false,true,true,false,false,true,true,false,false,false,false,false,false,false,false,false,false,false,false,false,false,false,false],"id":6,"left_children":[1,3,5,7,9,11,13,15,17,-1,-1,19,21,23,-1,25,27,29,31,-1,-1,33,35,-1,-1,-1,37,-1,-1,-1,-1,-1,39,41,43,45,47,-1,49,-1,-1,-1,51,53,55,57,59,-1,61,-1,-1,63,65,67,-1,69,-1,71,73,-1,-1,75,77,-1,-1,-1,-1,-1,-1,-1,-1,-1,-1,-1,-1,-1,-1,-1,-1],"loss_changes":[3.4647705E2,7.79541E1,8.251343E1,3.92218E1,2.6279297E0,6.834424E1,5.285309E0,1.6810608E1,4.0184875E1,0E0,0E0,9.022522E0,4.957605E1,1.8502808E-1,0E0,2.0716919E1,1.785944E0,6.730835E0,1.1770691E1,0E0,0E0,5.767871E1,1.9339294E1,0E0,0E0,0E0,7.569153E0,0E0,0E0,0E0,0E0,0E0,3.34455E-1,2.8381042E1,9.690338E0,1.0742676E1,7.1285477E0,0E0,3.1085815E0,0E0,0E0,0E0,1.6754944E1,9.022522E0,2.3691463E0,1.3450684E1,1.0765518E1,0E0,2.1160278E0,0E0,0E0,1.5303345E1,5.155548E0,6.4667664E0,0E0,9.665661E-1,0E0,1.1256424E1,2.3690338E1,0E0,0E0,3.0503387E0,2.4297166E0,0E0,0E0,0E0,0E0,0E0,0E0,0E0,0E0,0E0,0E0,0E0,0E0,0E0,0E0,0E0,0E0],"parents":[2147483647,0,0,1,1,2,2,3,3,4,4,5,5,6,6,7,7,8,8,11,11,12,12,13,13,15,15,16,16,17,17,18,18,21,21,22,22,26,26,32,32,33,33,34,34,35,35,36,36,38,38,42,42,43,43,44,44,45,45,46,46,48,48,51,51,52,52,53,53,55,55,57,57,58,58,61,61,62,62],"right_children":[2,4,6,8,10,12,14,16,18,-1,-1,20,22,24,-1,26,28,30,32,-1,-1,34,36,-1,-1,-1,38,-1,-1,-1,-1,-1,40,42,44,46,48,-1,50,-1,-1,-1,52,54,56,58,60,-1,62,-1,-1,64,66,68,-1,70,-1,72,74,-1,-1,76,78,-1,-1,-1,-1,-1,-1,-1,-1,-1,-1,-1,-1,-1,-1,-1,-1],"split_conditions":[5.4399996E0,5.93415E-1,7.183E0,7.6275E0,6.825E-1,1.17165E0,6.685E0,5.99E1,7.1850006E1,2.432457E0,6.6259575E-1,1.386525E1,5.125E-1,7.44385E-1,5.431971E-1,1.5E1,5.02405E-1,1.79E1,3.05505E0,2.3628244E0,5.133233E-1,4.47015E0,1.99E1,1.5812126E0,4.5264217E-1,6.5775865E-1,6.3875E0,6.115663E-1,8.066769E-2,2.3071818E0,8.612084E-1,1.2871015E0,8.054501E0,2.075E2,3.515E2,1.874E1,2.0130001E1,4.3997425E-1,1.28E1,6.507969E-2,3.5693896E-1,1.9087834E0,1.18540004E-1,7.03E1,4.72E-1,5.485E-1,1.926E1,-2.329475E-1,1.63431E1,3.372923E-1,1.3972361E0,1.77E1,6.915E0,5.7865E0,3.613193E-1,3.55E2,-2.4343016E-2,1.102825E0,1.4145E1,1.571066E0,3.8359997E-1,4.9045E0,1.7339249E1,1.1833369E0,6.035712E-1,1.2595718E0,4.2066252E-1,4.2463222E-1,8.1083906E-1,1.3996315E-1,4.721798E-1,5.4887414E-1,2.2707999E-2,9.5196563E-1,5.291002E-1,6.093073E-2,4.792411E-1,-1.2717305E-1,2.8126618E-1],"split_indices":[12,0,5,5,4,7,2,6,6,0,0,0,4,0,0,6,0,10,7,0,0,7,12,0,0,0,5,0,0,0,0,0,5,9,9,12,12,0,10,0,0,0,0,6,4,4,12,0,0,0,0,10,5,5,0,9,0,0,12,0,0,5,0,0,0,0,0,0,0,0,0,0,0,0,0,0,0,0,0],"split_type":[0,0,0,0,0,0,0,0,0,0,0,0,0,0,0,0,0,0,0,0,0,0,0,0,0,0,0,0,0,0,0,0,0,0,0,0,0,0,0,0,0,0,0,0,0,0,0,0,0,0,0,0,0,0,0,0,0,0,0,0,0,0,0,0,0,0,0,0,0,0,0,0,0,0,0,0,0,0,0],"sum_hessian":[4E2,7.6E1,3.24E2,6.6E1,1E1,3.08E2,1.6E1,5E1,1.6E1,9E0,1E0,3E0,3.05E2,1.4E1,2E0,4.4E1,6E0,1.1E1,5E0,2E0,1E0,1.46E2,1.59E2,1.3E1,1E0,8E0,3.6E1,5E0,1E0,9E0,2E0,2E0,3E0,5.7E1,8.9E1,1.23E2,3.6E1,2E0,3.4E1,1E0,2E0,4E0,5.3E1,7.6E1,1.3E1,1.19E2,4E0,1E0,3.5E1,1E0,3.3E1,2.8E1,2.5E1,6.8E1,8E0,1.2E1,1E0,6.1E1,5.8E1,2E0,2E0,2.8E1,7E0,7E0,2.1E1,2.3E1,2E0,8E0,6E1,2E0,1E1,5.7E1,4E0,2.8E1,3E1,2E0,2.6E1,1E0,6E0],"tree_param":{"num_deleted":"0","num_feature":"13","num_nodes":"79","size_leaf_vector":"0"}},{"base_weights":[2.228004E0,1.9119232E0,3.9254148E0,2.7161484E0,1.6971346E0,3.2859776E0,5.199616E0,3.0669534E0,1.7515575E0,5.452857E0,1.6347466E0,2.9331863E0,5.4511127E0,6.745909E0,3.4617746E0,3.1515427E0,-5.3896046E-1,1.8615549E0,4.710547E-1,6.300865E0,1.4544158E0,2.2060623E0,1.4593378E0,6.7336017E-1,3.0344045E0,6.9438934E-1,3.9995947E0,3.239839E0,7.177169E-1,1.409067E0,2.3075924E0,2.7218108E0,1.1680622E0,1.1508901E0,1.6803542E0,3.1347747E0,8.1849414E-1,1.8439293E-1,8.571911E-1,1.2298456E0,4.615259E0,4.8113346E-1,3.2893517E0,-1.1971855E-1,1.1962938E0,3.3957794E0,1.9503258E0,1.7482724E0,7.807459E-1,1.4148048E0,8.2952267E-1,1.7460375E0,3.7998977E-1,3.5208473E0,2.3595495E0,5.745983E-1,3.3369107E0,1.443799E0,3.6553173E0,2.203821E0,6.9837725E-1,3.3264923E-1,1.902983E0,5.5514526E-2,1.0394197E0,2.2817473E0,1.2111379E0,9.5359105E-1,2.5486532E-1,8.31631E-1,1.856594E0,-1.3092677E-2,5.398413E-1,5.944834E-1,2.4431624E0,3.1004162E0,4.985875E0,2.5589294E0,4.3455586E0,6.4062184E-1,2.3695395E0,3.561592E-1,-1.0868645E-1,1.2498183E0,3.587675E-1,2.8811867E0,9.6201134E-1,9.694659E-1,1.9626974E0,3.3614752E-1,1.1240875E0,5.8006656E-1,-1.21309E-1,1.0132031E0,-1.7186801E-1,2.2040956E0,1.5068454E0,-6.618643E-2,4.6547413E-2],"categories":[],"categories_nodes":[],"categories_segments":[],"categories_sizes":[],"default_left":[true,true,true,true,true,true,true,true,true,true,true,true,false,false,true,true,false,true,false,false,false,true,true,false,true,true,true,true,true,false,false,true,true,true,true,true,false,false,false,false,false,false,true,false,false,true,true,true,true,true,true,true,true,false,true,false,true,false,true,true,false,false,false,true,true,true,true,true,true,true,true,true,false,false,false,false,false,false,false,false,false,false,false,false,false,false,false,false,false,false,false,false,false,false,false,false,false,false,false],"id":7,"left_children":[1,3,5,7,9,11,13,15,17,19,21,23,-1,-1,25,27,-1,29,-1,-1,-1,31,33,-1,35,37,39,41,43,-1,-1,45,47,49,51,53,-1,-1,-1,-1,-1,-1,55,-1,-1,57,59,61,63,65,67,69,71,-1,73,-1,75,-1,77,79,-1,-1,-1,81,83,85,87,89,91,93,95,97,-1,-1,-1,-1,-1,-1,-1,-1,-1,-1,-1,-1,-1,-1,-1,-1,-1,-1,-1,-1,-1,-1,-1,-1,-1,-1,-1],"loss_changes":[2.0763892E2,5.4121338E1,3.3429993E1,1.831488E1,5.4584656E1,1.7619904E1,2.7704224E1,1.6949646E1,2.0810013E0,4.398773E0,2.363794E1,7.1061707E0,0E0,0E0,1.3594635E1,8.204712E0,0E0,5.831528E-1,0E0,0E0,0E0,2.9476929E1,1.224588E1,0E0,5.8858337E0,9.1024995E-2,9.671082E0,4.8371277E0,1.3455505E0,0E0,0E0,1.41753845E1,3.578991E0,6.45961E0,9.500549E0,2.4669495E0,0E0,0E0,0E0,0E0,0E0,0E0,4.0217285E0,0E0,0E0,4.854706E0,5.1255264E0,1.1190681E0,2.7562723E0,5.711731E0,2.8227272E0,9.879578E0,4.469117E-1,0E0,7.613144E-1,0E0,2.0904236E0,0E0,1.7451477E0,2.8858795E0,0E0,0E0,0E0,2.8554043E-1,1.1268969E0,3.5570793E0,5.5441017E0,3.3066578E0,1.1713585E0,2.7250414E0,8.832581E0,1.2580355E-2,0E0,0E0,0E0,0E0,0E0,0E0,0E0,0E0,0E0,0E0,0E0,0E0,0E0,0E0,0E0,0E0,0E0,0E0,0E0,0E0,0E0,0E0,0E0,0E0,0E0,0E0,0E0],"parents":[2147483647,0,0,1,1,2,2,3,3,4,4,5,5,6,6,7,7,8,8,9,9,10,10,11,11,14,14,15,15,17,17,21,21,22,22,24,24,25,25,26,26,27,27,28,28,31,31,32,32,33,33,34,34,35,35,42,42,45,45,46,46,47,47,48,48,49,49,50,50,51,51,52,52,54,54,56,56,58,58,59,59,63,63,64,64,65,65,66,66,67,67,68,68,69,69,70,70,71,71],"right_children":[2,4,6,8,10,12,14,16,18,20,22,24,-1,-1,26,28,-1,30,-1,-1,-1,32,34,-1,36,38,40,42,44,-1,-1,46,48,50,52,54,-1,-1,-1,-1,-1,-1,56,-1,-1,58,60,62,64,66,68,70,72,-1,74,-1,76,-1,78,80,-1,-1,-1,82,84,86,88,90,92,94,96,98,-1,-1,-1,-1,-1,-1,-1,-1,-1,-1,-1,-1,-1,-1,-1,-1,-1,-1,-1,-1,-1,-1,-1,-1,-1,-1,-1],"split_conditions":[7.0105E0,6.725E0,7.8255E0,6.54565E0,1.17165E0,1.14431E0,2.7E2,7.0025E0,6.46E0,1.386525E1,2.78E2,3.7183E2,1.6353339E0,2.023773E0,3.225E0,7.75E1,-1.6168815E-1,3.9266498E2,1.4131641E-1,1.8902596E0,4.3632475E-1,4.4280996E0,5.9554996E0,2.0200805E-1,6.685E0,4.78715E-1,3.2340002E-1,1.0355E-2,3.5585E-2,4.2272013E-1,6.922777E-1,6.92E1,3.79E1,1.6039999E1,9.8850006E1,6.28E1,2.4554825E-1,5.5317882E-2,2.5715733E-1,3.689537E-1,1.3845778E0,1.4434004E-1,4.75E0,-3.591557E-2,3.5888815E-1,4.936E-2,3.1388497E-1,5.734E0,9.49E0,3.40115E2,1.1343E1,4.981E-2,6.1765003E0,1.0562543E0,6.38E1,1.723795E-1,7.5E0,4.331397E-1,6.1324997E0,4.613E-2,2.0951319E-1,9.9794775E-2,5.708949E-1,3.2345E-2,4.895E-1,1.4215E1,1.4665E1,3.09E2,5.0179996E0,5.69E0,8.255E1,1.8670299E0,1.6195239E-1,1.7834502E-1,7.329488E-1,9.301249E-1,1.4957626E0,7.6767886E-1,1.3036677E0,1.9218656E-1,7.1086186E-1,1.0684777E-1,-3.2605935E-2,3.7494552E-1,1.0763026E-1,8.6435604E-1,2.8860343E-1,2.908398E-1,5.8880925E-1,1.0084426E-1,3.3722624E-1,1.7401998E-1,-3.63927E-2,3.0396095E-1,-5.1560406E-2,6.612287E-1,4.5205364E-1,-1.985593E-2,1.3964225E-2],"split_indices":[5,12,5,7,7,0,9,5,12,0,9,11,0,0,12,1,0,11,0,0,0,7,5,0,2,0,0,0,0,0,0,6,6,12,6,6,0,0,0,0,0,0,6,0,0,0,0,5,12,11,0,0,5,0,6,0,8,0,5,0,0,0,0,0,4,12,12,9,5,2,6,0,0,0,0,0,0,0,0,0,0,0,0,0,0,0,0,0,0,0,0,0,0,0,0,0,0,0,0],"split_type":[0,0,0,0,0,0,0,0,0,0,0,0,0,0,0,0,0,0,0,0,0,0,0,0,0,0,0,0,0,0,0,0,0,0,0,0,0,0,0,0,0,0,0,0,0,0,0,0,0,0,0,0,0,0,0,0,0,0,0,0,0,0,0,0,0,0,0,0,0,0,0,0,0,0,0,0,0,0,0,0,0,0,0,0,0,0,0,0,0,0,0,0,0,0,0,0,0,0,0],"sum_hessian":[4E2,3.39E2,6.1E1,6.9E1,2.7E2,4.3E1,1.8E1,4.9E1,2E1,3E0,2.67E2,3.9E1,4E0,8E0,1E1,4.8E1,1E0,1.8E1,2E0,2E0,1E0,6E1,2.07E2,2E0,3.7E1,2E0,8E0,4.6E1,2E0,1.1E1,7E0,3.9E1,2.1E1,8.9E1,1.18E2,3.5E1,2E0,1E0,1E0,2E0,6E0,1E0,4.5E1,1E0,1E0,1.9E1,2E1,7E0,1.4E1,4.7E1,4.2E1,1.12E2,6E0,2.1E1,1.4E1,1E0,4.4E1,3E0,1.6E1,1.6E1,4E0,1E0,6E0,4E0,1E1,7E0,4E1,3.4E1,8E0,1.3E1,9.9E1,2E0,4E0,1E0,1.3E1,4.1E1,3E0,8E0,8E0,2E0,1.4E1,1E0,3E0,7E0,3E0,4E0,3E0,3.2E1,8E0,8E0,2.6E1,4E0,4E0,1.1E1,2E0,4.7E1,5.2E1,1E0,1E0],"tree_param":{"num_deleted":"0","num_feature":"13","num_nodes":"99","size_leaf_vector":"0"}},{"base_weights":[1.6184598E0,1.3838211E0,2.879084E0,3.2754745E0,1.3224907E0,2.3922398E0,3.8549824E0,5.4880166E0,8.857773E-1,2.520996E0,1.2414247E0,5.551262E0,2.189675E0,4.244211E0,1.3343215E0,-4.019451E-1,1.6301248E0,8.910284E-1,3.1559088E0,1.6584511E0,1.0675511E0,5.3868866E-1,2.2570722E0,7.286129E-1,4.4300103E0,3.8608932E-1,1.5217024E0,9.7545785E-1,1.9222593E-1,3.708542E0,1.4194607E0,2.7965934E0,1.3935347E0,1.4518063E0,9.071769E-1,2.9645085E0,1.3893366E-1,4.3064034E-1,1.5020796E0,-2.2354451E-1,1.5672221E0,8.520646E-1,1.5762372E0,8.5247993E-1,3.0544763E0,-4.2616844E-2,6.743717E-1,-1.01760864E-1,1.527922E0,9.4573975E-2,-4.6714815E-1,1.8315837E0,6.5203166E-1,1.1063435E0,6.843201E-1,1.926116E0,4.8242044E-1,-9.572506E-2,6.9942474E-3,8.180977E-1,1.6256471E0,1.2978789E0,2.460506E0,-3.513266E-1,8.3341956E-1,8.366585E-1,1.7619756E0,8.565068E-2,8.368751E-1,4.6623867E-2,8.949051E-1],"categories":[],"categories_nodes":[],"categories_segments":[],"categories_sizes":[],"default_left":[true,true,true,true,true,true,true,false,true,true,true,false,true,true,true,false,false,true,true,true,true,false,false,false,false,false,false,false,false,false,false,true,true,true,true,true,false,true,true,true,true,true,true,false,false,true,false,false,true,false,false,true,true,true,true,false,true,false,false,false,false,false,false,false,false,false,false,false,false,false,false],"id":8,"left_children":[1,3,5,7,9,11,13,-1,15,17,19,-1,21,23,25,-1,-1,27,29,31,33,-1,-1,-1,-1,-1,-1,-1,-1,-1,-1,35,37,39,41,43,-1,45,47,49,51,53,55,-1,-1,57,-1,-1,59,-1,-1,61,63,65,67,-1,69,-1,-1,-1,-1,-1,-1,-1,-1,-1,-1,-1,-1,-1,-1],"loss_changes":[1.14628174E2,3.5113586E1,2.0234802E1,4.80119E1,2.9029724E1,1.6000412E1,1.2977997E1,0E0,6.406298E0,1.7885742E1,2.085257E1,0E0,3.5688324E0,7.223358E0,1.2320948E-1,0E0,0E0,2.2548819E-1,8.170532E0,2.3238983E1,1.2425247E1,0E0,0E0,0E0,0E0,0E0,0E0,0E0,0E0,0E0,0E0,6.7283173E0,7.1919403E0,1.272551E1,4.5566864E0,2.4633789E-1,0E0,1.0668682E0,2.9324493E0,4.3165416E-1,1.332222E1,5.640991E0,3.2805386E0,0E0,0E0,1.1208551E-2,0E0,0E0,3.2483215E0,0E0,0E0,1.2246872E1,3.0227585E0,8.781052E0,8.4220085E0,0E0,6.773136E-1,0E0,0E0,0E0,0E0,0E0,0E0,0E0,0E0,0E0,0E0,0E0,0E0,0E0,0E0],"parents":[2147483647,0,0,1,1,2,2,3,3,4,4,5,5,6,6,8,8,9,9,10,10,12,12,13,13,14,14,17,17,18,18,19,19,20,20,31,31,32,32,33,33,34,34,35,35,37,37,38,38,39,39,40,40,41,41,42,42,45,45,48,48,51,51,52,52,53,53,54,54,56,56],"right_children":[2,4,6,8,10,12,14,-1,16,18,20,-1,22,24,26,-1,-1,28,30,32,34,-1,-1,-1,-1,-1,-1,-1,-1,-1,-1,36,38,40,42,44,-1,46,48,50,52,54,56,-1,-1,58,-1,-1,60,-1,-1,62,64,66,68,-1,70,-1,-1,-1,-1,-1,-1,-1,-1,-1,-1,-1,-1,-1,-1],"split_conditions":[7.0105E0,1.35735E0,7.8255E0,1.6385E1,2.225E2,1.2593501E0,1.79E1,1.6464051E0,7.214575E0,3.8474E2,4.13E1,1.6653787E0,3.7183E2,2.6750002E0,2.44885E-1,-1.2058354E-1,4.8903745E-1,2.68865E-1,6.8304996E0,4.5006E0,1.75E1,1.6160661E-1,6.771217E-1,2.1858388E-1,1.3290031E0,1.158268E-1,4.5651075E-1,2.9263738E-1,5.766778E-2,1.1125627E0,4.258382E-1,1.844705E0,5.875E0,2.0026001E2,7.09E-1,7.9E0,4.1680098E-2,2.975E1,3.4299998E0,2.4130101E0,6.02125E0,7.35E1,1.4094999E1,2.5574398E-1,9.163429E-1,4.662E-2,2.0231153E-1,-3.052826E-2,3.7637E2,2.8372193E-2,-1.4014445E-1,2.8755002E0,4.565E1,1.276E1,1.85E1,5.7783484E-1,6.602675E0,-2.871752E-2,2.0982744E-3,2.4542932E-1,4.8769414E-1,3.8936368E-1,7.381518E-1,-1.0539799E-1,2.5002587E-1,2.5099754E-1,5.285927E-1,2.5695207E-2,2.5106254E-1,1.398716E-2,2.6847154E-1],"split_indices":[5,7,5,12,9,7,10,0,0,11,6,0,11,12,0,0,0,0,5,7,10,0,0,0,0,0,0,0,0,0,0,0,5,11,4,6,0,6,12,0,7,6,12,0,0,0,0,0,11,0,0,7,6,12,10,0,0,0,0,0,0,0,0,0,0,0,0,0,0,0,0],"split_type":[0,0,0,0,0,0,0,0,0,0,0,0,0,0,0,0,0,0,0,0,0,0,0,0,0,0,0,0,0,0,0,0,0,0,0,0,0,0,0,0,0,0,0,0,0,0,0,0,0,0,0,0,0,0,0,0,0,0,0,0,0,0,0,0,0,0,0,0,0,0,0],"sum_hessian":[4E2,3.39E2,6.1E1,9E0,3.3E2,4.3E1,1.8E1,4E0,5E0,1.9E1,3.11E2,1E0,4.2E1,1.5E1,3E0,2E0,3E0,6E0,1.3E1,8.9E1,2.22E2,2E0,4E1,1E0,1.4E1,1E0,2E0,5E0,1E0,9E0,4E0,1.5E1,7.4E1,6.3E1,1.59E2,1.4E1,1E0,8E0,6.6E1,4E0,5.9E1,1.49E2,1E1,1E0,1.3E1,3E0,5E0,1E0,6.5E1,2E0,2E0,4.5E1,1.4E1,5.7E1,9.2E1,7E0,3E0,1E0,2E0,9E0,5.6E1,2.6E1,1.9E1,2E0,1.2E1,4.2E1,1.5E1,1.9E1,7.3E1,2E0,1E0],"tree_param":{"num_deleted":"0","num_feature":"13","num_nodes":"71","size_leaf_vector":"0"}},{"base_weights":[1.1670781E0,2.238671E0,1.0080516E0,1.9939559E0,4.6155853E0,1.5226213E0,8.627062E-1,2.236551E0,1.0797912E0,2.2159595E0,1.0476687E0,3.4531846E0,8.2159036E-1,2.8580728E-1,2.3398561E0,1.1893557E0,-6.2708855E-2,1.2278258E0,2.5809777E0,7.579956E-1,1.9267812E0,3.9430897E0,9.917345E-1,1.3219832E0,7.375373E-1,8.8974E-2,3.3973694E-1,1.7350419E0,2.7067149E0,5.80489E-1,1.4543525E0,1.3532243E0,4.8415437E-1,4.275551E0,2.0610182E0,8.052157E-1,-4.7096443E-1,9.6593314E-1,2.8866124E0,1.627953E0,7.442992E-1,3.4934038E-1,7.9023474E-1,1.7943822E0,4.224682E-1,3.990631E-1,2.8071668E0,7.688594E-1,-8.649635E-2,2.8738022E-1,1.6009512E0,1.6396523E-2,7.0983505E-1,2.2587569E0,8.0424356E-1,8.687409E-1,-1.8314171E-1,1.0732174E-1,1.091148E0,6.4220047E-1,1.7929935E0,3.456442E-1,1.1505271E0,1.0797412E0,1.954425E-1,5.789047E-1,9.51029E-1,5.1372814E-1,1.8491627E0,3.1431391E0,1.7821944E0,1.7898709E0,3.281765E-1,1.2479296E0,2.6393776E0,6.693639E-1,1.178485E0,7.349639E-1,1.3557339E-1,2.062705E0,1.130588E0,5.8224297E-1,-9.566498E-2,2.6137066E-1,1.2551581E0,1.2452421E0,2.0886898E-1,1.2966557E-2,6.043925E-1,7.646367E-1,3.5890985E-1,1.0015038E0,-1.4126046E-1,1.9121201E0,5.15358E-1,-5.077667E-1,2.2484825E0,1.3518238E0,3.642292E-1,1.1399015E0,2.871759E0,3.9938188E-1,1.2294112E0,6.898065E-1,1.5521959E0,4.8186016E-1,2.154287E0,1.2785307E0,4.749489E-2,1.0416985E-2,-1.3449796E-1,3.1283307E-1,-1.88025E-1,8.89555E-1,9.6841335E-2,1.6508201E0,5.776342E-1,4.9091107E-1,-5.589164E-1,1.3506064E0,8.49344E-1,3.8762856E-1,-5.026121E-1],"categories":[],"categories_nodes":[],"categories_segments":[],"categories_sizes":[],"default_left":[true,true,true,true,false,true,true,true,true,true,true,true,true,true,true,true,false,true,true,true,true,false,false,true,true,false,false,true,true,true,true,false,true,false,true,true,false,true,false,true,true,true,true,true,false,false,true,false,false,false,true,false,false,true,false,true,false,false,false,true,true,true,true,true,true,true,true,false,true,false,true,false,false,true,true,true,true,false,false,true,true,false,true,false,false,false,false,true,true,true,true,true,true,false,false,false,false,false,false,false,false,false,false,false,false,false,false,false,false,false,false,false,false,false,false,false,false,false,false,false,false,false,false],"id":9,"left_children":[1,3,5,7,-1,9,11,13,15,17,19,21,23,25,27,29,-1,31,33,35,37,-1,-1,39,41,-1,-1,43,45,47,49,-1,51,-1,53,55,-1,57,-1,59,61,63,65,67,-1,-1,69,-1,-1,-1,71,-1,-1,73,-1,75,-1,-1,-1,77,79,81,83,85,87,89,91,-1,93,-1,95,-1,-1,97,99,101,103,-1,-1,105,107,-1,109,-1,-1,-1,-1,111,113,115,117,119,121,-1,-1,-1,-1,-1,-1,-1,-1,-1,-1,-1,-1,-1,-1,-1,-1,-1,-1,-1,-1,-1,-1,-1,-1,-1,-1,-1,-1,-1,-1],"loss_changes":[6.607837E1,2.0461731E1,2.4937836E1,8.230057E0,0E0,2.270543E1,2.6559555E1,6.787552E0,1.5767117E0,7.6516113E0,1.0508305E1,9.1300964E-1,1.0507233E1,1.6177148E-3,3.0695953E0,9.305897E-1,0E0,2.773838E-1,9.691299E0,2.5263996E0,7.3564987E0,0E0,0E0,5.5049667E0,4.5517883E0,0E0,0E0,4.8814774E-1,3.515915E0,6.947049E-1,7.374544E-1,0E0,3.0505282E-1,0E0,2.6566467E0,2.419384E0,0E0,6.354728E-1,0E0,2.7530785E0,2.0314999E0,3.1611876E0,6.483444E0,1.0235596E-1,0E0,0E0,9.412079E-1,0E0,0E0,0E0,8.55319E-1,0E0,0E0,2.4773712E0,0E0,1.3108635E0,0E0,0E0,0E0,1.3534069E-1,1.2411041E0,9.9541914E-1,3.2317066E-1,4.6055794E-1,1.9323752E0,3.4846935E0,6.5369186E0,0E0,1.9019699E-1,0E0,8.616173E0,0E0,0E0,5.8494568E-2,2.1098328E-1,2.9866571E0,1.120779E0,0E0,0E0,8.440361E-1,1.2211618E0,0E0,1.787898E-2,0E0,0E0,0E0,0E0,1.2039626E0,1.0717309E0,7.1666355E0,5.605163E0,4.7491302E0,1.3415163E0,0E0,0E0,0E0,0E0,0E0,0E0,0E0,0E0,0E0,0E0,0E0,0E0,0E0,0E0,0E0,0E0,0E0,0E0,0E0,0E0,0E0,0E0,0E0,0E0,0E0,0E0,0E0,0E0,0E0,0E0],"parents":[2147483647,0,0,1,1,2,2,3,3,5,5,6,6,7,7,8,8,9,9,10,10,11,11,12,12,13,13,14,14,15,15,17,17,18,18,19,19,20,20,23,23,24,24,27,27,28,28,29,29,30,30,32,32,34,34,35,35,37,37,39,39,40,40,41,41,42,42,43,43,46,46,50,50,53,53,55,55,59,59,60,60,61,61,62,62,63,63,64,64,65,65,66,66,68,68,70,70,73,73,74,74,75,75,76,76,79,79,80,80,82,82,87,87,88,88,89,89,90,90,91,91,92,92],"right_children":[2,4,6,8,-1,10,12,14,16,18,20,22,24,26,28,30,-1,32,34,36,38,-1,-1,40,42,-1,-1,44,46,48,50,-1,52,-1,54,56,-1,58,-1,60,62,64,66,68,-1,-1,70,-1,-1,-1,72,-1,-1,74,-1,76,-1,-1,-1,78,80,82,84,86,88,90,92,-1,94,-1,96,-1,-1,98,100,102,104,-1,-1,106,108,-1,110,-1,-1,-1,-1,112,114,116,118,120,122,-1,-1,-1,-1,-1,-1,-1,-1,-1,-1,-1,-1,-1,-1,-1,-1,-1,-1,-1,-1,-1,-1,-1,-1,-1,-1,-1,-1,-1,-1],"split_conditions":[4.65E0,3.454205E0,4.1000004E0,1.79E1,1.3846756E0,2.675E2,1.17165E0,1.33E1,4.3096E-1,2.21415E0,7.5595E-2,1.386525E1,3.265E1,2.90305E-1,7.3195E0,3.5349998E0,-1.8812656E-2,9.725E1,2.64925E0,8.0350006E1,6.602E0,1.182927E0,2.9752037E-1,5.84065E0,5.75E0,2.66922E-2,1.0192109E-1,7.1815E0,1.635E1,7.75E1,6.5165E0,4.059673E-1,6.6008E-1,1.2826653E0,7.2425003E0,9.903E0,-1.4128934E-1,3E0,8.659838E-1,5.3E0,3.95115E2,4.7958E0,5.9505E0,1.46E1,1.2674046E-1,1.1971894E-1,8.037001E0,2.3065783E-1,-2.5948906E-2,8.6214066E-2,5.645E1,4.918957E-3,2.1295053E-1,5.2055E-2,2.4127308E-1,7.25E1,-5.4942515E-2,3.219652E-2,3.2734442E-1,1.5965E-1,1.91E1,5.59E0,5.59E0,6.443E-2,1.089E1,9.39E1,8.205E-1,1.5411845E-1,4.6000004E0,9.429418E-1,8.143499E0,5.3696126E-1,9.8452955E-2,7E1,2.8379998E0,6.6295E-2,3.385E1,2.2048917E-1,4.067202E-2,2.28E2,5.3516E0,1.746729E-1,5.8684998E0,7.84112E-2,3.7654743E-1,3.7357265E-1,6.2660694E-2,4.037E-2,1.09705E-1,1.7099998E1,5.866E0,3.8608002E2,1.68175E0,5.7363605E-1,1.546074E-1,-1.5233003E-1,6.7454475E-1,4.0554717E-1,1.0926876E-1,3.4197047E-1,8.6152774E-1,1.1981457E-1,3.6882338E-1,2.0694196E-1,4.6565878E-1,1.4455806E-1,6.4628613E-1,3.8355923E-1,1.4248467E-2,3.1250955E-3,-4.0349387E-2,9.384993E-2,-5.64075E-2,2.668665E-1,2.9052401E-2,4.9524605E-1,1.7329027E-1,1.4727333E-1,-1.6767493E-1,4.0518194E-1,2.548032E-1,1.1628857E-1,-1.5078364E-1],"split_indices":[12,0,2,10,0,9,7,10,0,7,0,0,6,0,5,12,0,6,7,6,5,0,0,7,2,0,0,5,6,1,5,0,0,0,5,7,0,8,0,12,11,7,5,6,0,0,5,0,0,0,6,0,0,0,0,1,0,0,0,0,10,2,12,0,12,6,4,0,12,0,5,0,0,1,7,0,6,0,0,9,7,0,5,0,0,0,0,0,0,10,5,11,7,0,0,0,0,0,0,0,0,0,0,0,0,0,0,0,0,0,0,0,0,0,0,0,0,0,0,0,0,0,0],"split_type":[0,0,0,0,0,0,0,0,0,0,0,0,0,0,0,0,0,0,0,0,0,0,0,0,0,0,0,0,0,0,0,0,0,0,0,0,0,0,0,0,0,0,0,0,0,0,0,0,0,0,0,0,0,0,0,0,0,0,0,0,0,0,0,0,0,0,0,0,0,0,0,0,0,0,0,0,0,0,0,0,0,0,0,0,0,0,0,0,0,0,0,0,0,0,0,0,0,0,0,0,0,0,0,0,0,0,0,0,0,0,0,0,0,0,0,0,0,0,0,0,0,0,0],"sum_hessian":[4E2,5E1,3.5E2,4.7E1,3E0,7.5E1,2.75E2,3.6E1,1.1E1,2.9E1,4.6E1,3E0,2.72E2,2E0,3.4E1,1E1,1E0,9E0,2E1,3.6E1,1E1,2E0,1E0,3.7E1,2.35E2,1E0,1E0,1.5E1,1.9E1,4E0,6E0,7E0,2E0,3E0,1.7E1,3.5E1,1E0,6E0,4E0,2.3E1,1.4E1,2.9E1,2.06E2,1.4E1,1E0,1E0,1.8E1,3E0,1E0,1E0,5E0,1E0,1E0,1.4E1,3E0,3.3E1,2E0,1E0,5E0,4E0,1.9E1,8E0,6E0,4E0,2.5E1,9.1E1,1.15E2,1E0,1.3E1,1.2E1,6E0,4E0,1E0,5E0,9E0,2.2E1,1.1E1,3E0,1E0,1.2E1,7E0,5E0,3E0,1E0,5E0,3E0,1E0,1.8E1,7E0,4.8E1,4.3E1,1.1E2,5E0,1.2E1,1E0,1E0,5E0,4E0,1E0,2E0,7E0,1.6E1,6E0,6E0,5E0,1E0,1.1E1,6E0,1E0,1E0,2E0,7E0,1.1E1,4E0,3E0,7E0,4.1E1,3.8E1,5E0,3.1E1,7.9E1,2E0,3E0],"tree_param":{"num_deleted":"0","num_feature":"13","num_nodes":"123","size_leaf_vector":"0"}},{"base_weights":[8.584443E-1,3.4866107E0,8.164558E-1,4.378972E0,1.134592E0,1.2116852E0,5.858022E-1,1.0645126E0,2.1316445E0,9.1040987E-1,4.773651E-1,9.4196665E-1,1.6382225E0,2.9116626E0,1.2996621E0,1.1202046E0,4.4746757E-1,5.097506E-1,-9.891996E-2,1.2985446E0,7.267709E-1,1.7960774E0,9.240023E-2,3.0723982E0,8.128891E-1,2.1236413E0,5.254397E-1,3.6086178E-1,1.2617629E0,1.4536937E-1,7.6523864E-1,-3.3318472E-1,5.258292E-1,3.8607144E-1,-3.2905066E-1,1.392407E0,-2.9193878E-1,7.726262E-1,-1.4702606E-2,5.587559E-1,1.9087766E0,1.4560223E-1,-7.001877E-3,-4.3160248E-1,7.5688046E-1,5.9656143E-2,4.5132098E-1,5.924922E-1,1.4706452E0,-5.205133E-2,5.532236E-1,8.7160325E-1,2.2652023E-1,1.8008198E-1,5.7092863E-1,4.627552E-1,7.801008E-2,6.26688E-2,-4.700686E-1,1.4893477E0,2.2030926E-1,-3.9083576E-1,-4.707241E-2,1.3082817E0,6.135531E-1,-2.1984291E-1,4.029293E-1,5.726369E-1,2.0487528E0,3.244753E-1,1.0811272E0,-1.739502E-3,9.122372E-2,1.1362362E-1,4.961357E-1,6.38379E-1,8.9755535E-2,1.768339E0,8.1750125E-1,1.7690594E-1,-3.8247442E-1,1.6248608E-1,6.2930745E-1,-4.5045853E-2,3.8482618E-1,6.437923E-1,-1.3088049E-1,9.3519944E-1,4.5081845E-1,1.3231134E-1,-3.8308144E-2,-5.6611025E-1,-1.8532355E-1,1.0603913E0,1.7365975E0,4.569435E-1,-2.4479675E-1,1.5955162E-1,1.4864407E0,7.056552E-1,-7.933998E-2,-4.0032005E-1,-2.6243845E-2,8.570833E-1,1.8720627E-3,2.1275465E0,4.7282124E-1,3.7399927E-1,8.795166E-2,7.518371E-1,3.085971E-1,2.338274E0,1.2448951E0,7.462978E-2,8.9175034E-1,7.605934E-2,2.0831442E-1,-6.2594414E-2,-4.682363E-1,-2.7531305E-2,8.39532E-1,2.6664099E-2,-7.17432E-1,7.9004455E-1,3.1529646E0,2.2996826E-1,6.341537E-1],"categories":[],"categories_nodes":[],"categories_segments":[],"categories_sizes":[],"default_left":[true,true,true,false,false,true,true,true,true,true,true,true,true,true,true,true,true,true,true,true,true,true,true,false,false,false,true,true,true,true,true,false,true,true,true,true,true,true,true,false,true,false,false,false,true,true,true,true,true,true,true,false,true,true,true,false,false,true,true,true,true,false,false,true,true,true,false,true,true,true,false,false,false,false,false,true,false,true,true,true,true,false,false,false,false,true,true,true,true,false,false,false,false,false,false,false,false,false,false,false,false,false,false,false,false,false,false,false,false,false,false,false,false,false,false,false,false,false,false,false,false,false,false,false,false,false,false],"id":10,"left_children":[1,3,5,-1,-1,7,9,11,13,15,17,19,21,23,25,27,29,31,33,35,37,39,41,-1,-1,-1,43,45,47,49,51,-1,53,55,57,59,61,63,65,-1,67,-1,-1,-1,69,71,73,75,77,79,81,-1,83,85,87,-1,-1,89,91,93,95,-1,-1,97,99,101,-1,103,105,107,-1,-1,-1,-1,-1,109,-1,111,113,115,117,-1,-1,-1,-1,119,121,123,125,-1,-1,-1,-1,-1,-1,-1,-1,-1,-1,-1,-1,-1,-1,-1,-1,-1,-1,-1,-1,-1,-1,-1,-1,-1,-1,-1,-1,-1,-1,-1,-1,-1,-1,-1,-1,-1,-1],"loss_changes":[4.1404785E1,7.624756E0,3.5389984E1,0E0,0E0,1.7362778E1,8.435677E0,7.385681E0,8.546082E0,5.520363E0,3.6151085E0,7.2668076E0,4.95837E0,5.3861237E-1,5.9015274E0,4.059311E0,1.9047174E0,2.6283302E0,1.3547627E0,6.228668E0,2.3573914E0,1.5829163E0,1.6884662E-2,0E0,0E0,0E0,1.8771615E0,1.9105053E-1,4.021618E0,9.950224E-1,3.7556982E-1,0E0,2.6727371E0,5.8393657E-2,4.713745E-1,3.875969E0,5.425206E-2,4.7358437E0,5.1694685E-1,0E0,2.006279E0,0E0,0E0,0E0,4.904368E-1,5.9730187E-3,3.4430146E-2,1.7339158E-1,3.6097374E0,7.4853694E-1,1.6661525E-2,0E0,1.4630644E-1,3.2565827E0,6.4475594E0,0E0,0E0,2.6165474E-2,5.9170723E-2,1.7645493E0,5.5209833E-1,0E0,0E0,2.6280289E0,3.3744678E0,1.2925489E-1,0E0,4.8545158E-1,8.566513E-1,1.39605105E-2,0E0,0E0,0E0,0E0,0E0,1.0473323E-1,0E0,2.1606903E0,4.8502445E-1,3.1603724E-3,8.0425024E-2,0E0,0E0,0E0,0E0,1.205756E0,1.312842E0,9.741955E0,4.712919E0,0E0,0E0,0E0,0E0,0E0,0E0,0E0,0E0,0E0,0E0,0E0,0E0,0E0,0E0,0E0,0E0,0E0,0E0,0E0,0E0,0E0,0E0,0E0,0E0,0E0,0E0,0E0,0E0,0E0,0E0,0E0,0E0,0E0,0E0,0E0,0E0,0E0,0E0],"parents":[2147483647,0,0,1,1,2,2,5,5,6,6,7,7,8,8,9,9,10,10,11,11,12,12,13,13,14,14,15,15,16,16,17,17,18,18,19,19,20,20,21,21,22,22,26,26,27,27,28,28,29,29,30,30,32,32,33,33,34,34,35,35,36,36,37,37,38,38,40,40,44,44,45,45,46,46,47,47,48,48,49,49,50,50,52,52,53,53,54,54,57,57,58,58,59,59,60,60,63,63,64,64,65,65,67,67,68,68,69,69,75,75,77,77,78,78,79,79,80,80,85,85,86,86,87,87,88,88],"right_children":[2,4,6,-1,-1,8,10,12,14,16,18,20,22,24,26,28,30,32,34,36,38,40,42,-1,-1,-1,44,46,48,50,52,-1,54,56,58,60,62,64,66,-1,68,-1,-1,-1,70,72,74,76,78,80,82,-1,84,86,88,-1,-1,90,92,94,96,-1,-1,98,100,102,-1,104,106,108,-1,-1,-1,-1,-1,110,-1,112,114,116,118,-1,-1,-1,-1,120,122,124,126,-1,-1,-1,-1,-1,-1,-1,-1,-1,-1,-1,-1,-1,-1,-1,-1,-1,-1,-1,-1,-1,-1,-1,-1,-1,-1,-1,-1,-1,-1,-1,-1,-1,-1,-1,-1,-1,-1],"split_conditions":[1.2593501E0,1.01702E1,7.635E0,1.3136916E0,3.4037763E-1,7.8255E0,2.78E2,3.84E2,2.7E2,4.4280996E0,2.8805E1,2.6E2,7.23E0,5.9494E-1,3.83525E2,4.68E-1,5.70515E0,1.10024994E2,2.5741801E0,5.015E-1,8.165E1,1.46E1,7.4613E-1,9.217195E-1,2.4386674E-1,6.370924E-1,8.054501E0,3.93395E2,2.5E0,6.0445004E0,6.25E1,-9.995542E-2,7.629E-2,1.99863E0,4.8915E0,7.668E0,4.4105E-2,3.58055E0,7.2635E0,1.6762677E-1,3.54295E2,4.3680668E-2,-2.1005631E-3,-1.2948075E-1,3.185E2,1.02845E-1,4.2485E-2,2.78185E-1,8.685E1,5.9315E0,3.0185E-2,2.61481E-1,1.4862001E-1,4.105E-1,8.005E0,1.3882656E-1,2.3403026E-2,1.7209301E1,1.9704449E1,5.4375E-2,1.4388001E-1,-1.1725073E-1,-1.4121723E-2,6.4305E0,5.535E1,2.7479E-1,1.2087879E-1,1.30815E0,9.18185E0,7.715E1,3.2433817E-1,-5.218506E-4,2.7367117E-2,3.4087088E-2,1.4884073E-1,5.995E0,2.692666E-2,1.36145E-1,8.92E1,3.9585498E2,5.824E-2,4.8745826E-2,1.8879224E-1,-1.3513756E-2,1.1544786E-1,2.6100001E0,3.94885E2,9.52E1,1.3375E1,3.9693404E-2,-1.1492443E-2,-1.6983308E-1,-5.5597067E-2,3.181174E-1,5.209793E-1,1.3708305E-1,-7.343903E-2,4.7865488E-2,4.459322E-1,2.1169658E-1,-2.3801995E-2,-1.2009602E-1,-7.873154E-3,2.5712502E-1,5.616188E-4,6.38264E-1,1.4184637E-1,1.1219978E-1,2.63855E-2,2.2555113E-1,9.257913E-2,7.0148224E-1,3.7346855E-1,2.2388935E-2,2.675251E-1,2.2817804E-2,6.2494326E-2,-1.8778324E-2,-1.4047089E-1,-8.259392E-3,2.518596E-1,7.99923E-3,-2.1522962E-1,2.3701337E-1,9.458894E-1,6.8990484E-2,1.9024612E-1],"split_indices":[7,0,12,0,0,5,9,9,9,7,12,9,12,0,11,4,7,11,0,4,6,6,0,0,0,0,5,11,8,5,6,0,0,0,5,5,0,7,5,0,11,0,0,0,9,0,0,0,6,5,0,0,0,4,2,0,0,0,0,0,0,0,0,5,6,0,0,0,7,6,0,0,0,0,0,5,0,0,6,11,0,0,0,0,0,2,11,6,2,0,0,0,0,0,0,0,0,0,0,0,0,0,0,0,0,0,0,0,0,0,0,0,0,0,0,0,0,0,0,0,0,0,0,0,0,0,0],"split_type":[0,0,0,0,0,0,0,0,0,0,0,0,0,0,0,0,0,0,0,0,0,0,0,0,0,0,0,0,0,0,0,0,0,0,0,0,0,0,0,0,0,0,0,0,0,0,0,0,0,0,0,0,0,0,0,0,0,0,0,0,0,0,0,0,0,0,0,0,0,0,0,0,0,0,0,0,0,0,0,0,0,0,0,0,0,0,0,0,0,0,0,0,0,0,0,0,0,0,0,0,0,0,0,0,0,0,0,0,0,0,0,0,0,0,0,0,0,0,0,0,0,0,0,0,0,0,0],"sum_hessian":[4E2,5E0,3.95E2,3E0,2E0,1.44E2,2.51E2,1.26E2,1.8E1,6.1E1,1.9E2,1.06E2,2E1,8E0,1E1,4.1E1,2E1,1.8E2,1E1,3.8E1,6.8E1,1.8E1,2E0,7E0,1E0,4E0,6E0,7E0,3.4E1,1.1E1,9E0,3E0,1.77E2,3E0,7E0,3.6E1,2E0,6.4E1,4E0,2E0,1.6E1,1E0,1E0,1E0,5E0,2E0,5E0,9E0,2.5E1,8E0,3E0,7E0,2E0,2.1E1,1.56E2,2E0,1E0,2E0,5E0,3.3E1,3E0,1E0,1E0,1.3E1,5.1E1,3E0,1E0,2E0,1.4E1,3E0,2E0,1E0,1E0,1E0,4E0,8E0,1E0,1.6E1,9E0,5E0,3E0,1E0,2E0,1E0,1E0,8E0,1.3E1,3.7E1,1.19E2,1E0,1E0,3E0,2E0,1.4E1,1.9E1,2E0,1E0,2E0,1.1E1,4.5E1,6E0,1E0,2E0,1E0,1E0,1.3E1,1E0,2E0,1E0,5E0,3E0,6E0,1E1,1E0,8E0,2E0,3E0,1E0,2E0,2E0,6E0,1.1E1,2E0,3.6E1,1E0,5.5E1,6.4E1],"tree_param":{"num_deleted":"0","num_feature":"13","num_nodes":"127","size_leaf_vector":"0"}},{"base_weights":[6.2653047E-1,2.7163064E0,5.932851E-1,3.3937044E0,9.0767354E-1,5.408833E-1,1.6045791E0,7.663633E-1,4.2510214E-1,2.167674E0,9.979942E-1,1.0628009E0,6.1785406E-1,1.09114505E-1,4.9513283E-1,9.5252866E-1,2.378783E0,1.6139672E0,4.1544288E-1,1.3419819E-1,1.1880459E0,8.964265E-1,3.8352382E-1,4.8134136E-1,-6.338602E-2,6.6196334E-1,3.5197175E-1,2.5449283E0,6.909561E-1,2.0207012E0,6.692441E-1,-3.6686134E-1,6.069705E-1,-5.8037758E-2,3.4578004E-1,1.5597494E0,7.733769E-1,1.1167624E0,4.2320088E-1,4.338888E-1,-5.333684E-1,6.352673E-2,6.274988E-1,1.6111417E-1,-5.2703315E-1,9.2788017E-1,4.884893E-1,4.0047848E-1,-3.347391E-1,2.6177883E-1,8.649025E-1,3.1789143E-5,-1.161232E-1,1.7751446E0,3.620801E-1,9.463521E-1,2.4087174E-1,8.585756E-1,1.5090512E0,1.8335795E-1,6.368498E-1,7.622668E-1,2.2239901E-1,-1.2305212E-1,1.4093447E-1,9.3270236E-1,2.1771209E-1,3.7690258E-1,-1.57101E-1,4.027958E-1,-6.602956E-1,1.4325225E0,6.7868996E-1,-3.610368E-2,5.9628594E-1,3.4243608E-1,1.5044482E0,-6.4538336E-1,-1.9275855E-2,2.9919943E-1,7.475853E-2,-8.118629E-3,8.166313E-3,8.3818865E-1,1.9395345E0,7.285204E-1,-2.9067993E-3,2.1308708E-1,1.126962E0,-3.4027195E-1,4.2515486E-1,1.1786284E0,5.4775757E-1,1.6667421E0,1.2376213E-1,2.7424812E-1,-5.9541702E-2,-2.1694183E-2,8.616178E-1,6.8497115E-1,7.821552E-2,1.0880399E0,4.1468492E-1,4.2239785E-1,-1.2777297E-1,5.647657E-1,-5.0018406E-1,1.3768816E-1,-3.0310896E-1,-7.82616E-1,-1.1400938E-1,-3.0469894E-3,1.5763842E0,1.6340452E0,5.309918E-1,8.5157776E-1,-4.7543144E-1,-1.4299257E-1,7.027665E-1,4.6969244E-1,-6.830131E-2,2.6800203E0,5.4055E-1,1.5506744E-1,-1.0162854E-1],"categories":[],"categories_nodes":[],"categories_segments":[],"categories_sizes":[],"default_left":[true,true,true,false,false,true,true,true,true,true,true,true,true,true,true,false,true,true,true,true,true,true,true,true,true,true,true,false,false,false,false,false,true,true,false,true,true,true,true,true,false,true,true,true,true,true,true,true,true,true,false,true,false,true,true,true,true,true,true,true,false,true,true,false,false,true,true,true,true,false,true,true,true,true,true,true,true,false,true,false,false,false,false,false,false,false,false,false,false,false,false,false,false,false,false,false,false,false,false,false,false,false,false,false,false,false,false,false,false,false,false,false,false,false,false,false,false,false,false,false,false,false,false,false,false],"id":11,"left_children":[1,3,5,-1,-1,7,9,11,13,15,17,19,21,23,25,-1,27,29,31,33,35,37,39,41,43,45,47,-1,-1,-1,-1,-1,49,51,-1,53,55,57,59,61,-1,63,65,67,69,71,73,75,77,79,-1,81,-1,83,85,87,89,91,93,95,-1,97,99,-1,-1,101,103,105,107,-1,109,111,113,115,117,119,121,-1,123,-1,-1,-1,-1,-1,-1,-1,-1,-1,-1,-1,-1,-1,-1,-1,-1,-1,-1,-1,-1,-1,-1,-1,-1,-1,-1,-1,-1,-1,-1,-1,-1,-1,-1,-1,-1,-1,-1,-1,-1,-1,-1,-1,-1,-1,-1],"loss_changes":[2.6248108E1,4.2706146E0,2.0117584E1,0E0,0E0,9.542404E0,4.3264084E0,4.9343567E0,5.522438E0,4.2892456E-2,3.2766838E0,4.6089783E0,5.3353806E0,3.0483487E0,4.6870346E0,0E0,2.0453644E-1,5.689125E-1,1.2715042E0,2.6411015E-1,4.3425484E0,3.5938587E0,2.4942055E0,8.76138E-1,3.5198455E0,3.8829308E0,3.898098E0,0E0,0E0,0E0,0E0,0E0,3.0780268E-1,1.34956725E-2,0E0,4.0007553E0,1.5221453E0,1.3377457E0,6.006193E-1,3.0945568E0,0E0,8.955552E-2,1.1726918E0,1.6385561E0,1.628989E0,3.5548306E0,3.3579378E0,6.276993E0,7.715344E-1,5.625963E-3,0E0,2.6519859E-4,0E0,6.846962E-1,5.371014E-1,1.6139469E0,7.872381E-1,1.1450043E0,1.7597466E0,1.9294673E-1,0E0,1.4206638E0,1.9472827E0,0E0,0E0,3.1610966E-2,4.7826627E-1,2.5892982E0,4.7215015E-1,0E0,5.789938E-1,2.2765617E0,2.8010445E0,4.694681E0,3.9577103E0,5.363515E0,4.2169743E0,0E0,8.754747E-2,0E0,0E0,0E0,0E0,0E0,0E0,0E0,0E0,0E0,0E0,0E0,0E0,0E0,0E0,0E0,0E0,0E0,0E0,0E0,0E0,0E0,0E0,0E0,0E0,0E0,0E0,0E0,0E0,0E0,0E0,0E0,0E0,0E0,0E0,0E0,0E0,0E0,0E0,0E0,0E0,0E0,0E0,0E0,0E0,0E0,0E0],"parents":[2147483647,0,0,1,1,2,2,5,5,6,6,7,7,8,8,9,9,10,10,11,11,12,12,13,13,14,14,16,16,17,17,18,18,19,19,20,20,21,21,22,22,23,23,24,24,25,25,26,26,32,32,33,33,35,35,36,36,37,37,38,38,39,39,41,41,42,42,43,43,44,44,45,45,46,46,47,47,48,48,49,49,51,51,53,53,54,54,55,55,56,56,57,57,58,58,59,59,61,61,62,62,65,65,66,66,67,67,68,68,70,70,71,71,72,72,73,73,74,74,75,75,76,76,78,78],"right_children":[2,4,6,-1,-1,8,10,12,14,16,18,20,22,24,26,-1,28,30,32,34,36,38,40,42,44,46,48,-1,-1,-1,-1,-1,50,52,-1,54,56,58,60,62,-1,64,66,68,70,72,74,76,78,80,-1,82,-1,84,86,88,90,92,94,96,-1,98,100,-1,-1,102,104,106,108,-1,110,112,114,116,118,120,122,-1,124,-1,-1,-1,-1,-1,-1,-1,-1,-1,-1,-1,-1,-1,-1,-1,-1,-1,-1,-1,-1,-1,-1,-1,-1,-1,-1,-1,-1,-1,-1,-1,-1,-1,-1,-1,-1,-1,-1,-1,-1,-1,-1,-1,-1,-1,-1],"split_conditions":[1.2593501E0,1.01702E1,7.8255E0,1.0181113E0,2.7230206E-1,7.635E0,2.7E2,4.14415E0,1.8018501E0,7.8640003E0,3.83525E2,5.47E-2,3.7649999E0,6.8200004E-1,3.70955E0,2.857586E-1,5.9494E-1,1.2685599E0,8.054501E0,3.73E0,6.8269997E0,7.7405996E0,7.3125E0,4.65935E-1,5.728E0,8.255E1,1.06663E0,7.634785E-1,2.0728685E-1,6.0621035E-1,2.0077324E-1,-1.10058405E-1,3.185E2,5.117E-2,1.0373402E-1,1.884E1,3.9484E2,5.065E0,3.51E1,5.344E0,-1.6001053E-1,2.54475E-1,1.55812E1,8.07211E0,1.456E1,3.8813E2,3.61675E2,9.57E1,1.9529999E1,7.715E1,2.5947076E-1,2.782E-2,-3.4836963E-2,6.302E0,1.30815E0,1.385E1,5.72E-2,3.1935E-2,4.59E-1,5.9399996E0,1.9105496E-1,3.5585E-2,6.3059998E0,-3.6915638E-2,4.2280342E-2,2.224E1,1.4013E0,5E-1,4.94E0,1.2083874E-1,9.31665E0,5.1925E0,2.075E2,1.121E1,8.4399994E1,7.35E1,1.77895E-1,-1.9361502E-1,5.6415E0,8.9759834E-2,2.2427559E-2,-2.435589E-3,2.449894E-3,2.5145662E-1,5.8186036E-1,2.1855612E-1,-8.720398E-4,6.392613E-2,3.380886E-1,-1.0208159E-1,1.2754646E-1,3.5358855E-1,1.6432728E-1,5.0002265E-1,3.7128642E-2,8.227444E-2,-1.7862512E-2,-6.5082554E-3,2.5848535E-1,2.0549135E-1,2.3464656E-2,3.2641196E-1,1.2440548E-1,1.2671936E-1,-3.8331892E-2,1.6942972E-1,-1.5005523E-1,4.130645E-2,-9.093269E-2,-2.3478481E-1,-3.4202814E-2,-9.140969E-4,4.7291526E-1,4.902136E-1,1.5929754E-1,2.5547335E-1,-1.4262944E-1,-4.2897772E-2,2.1082996E-1,1.4090773E-1,-2.0490395E-2,8.0400616E-1,1.62165E-1,4.6520233E-2,-3.0488564E-2],"split_indices":[7,0,5,0,0,12,9,7,7,5,11,0,2,4,7,0,0,0,5,2,5,7,5,0,5,6,0,0,0,0,0,0,9,0,0,2,11,12,6,7,0,0,0,0,12,11,11,6,12,6,0,0,0,5,0,10,0,0,4,12,0,0,5,0,0,12,7,3,5,0,0,5,9,12,6,6,0,0,5,0,0,0,0,0,0,0,0,0,0,0,0,0,0,0,0,0,0,0,0,0,0,0,0,0,0,0,0,0,0,0,0,0,0,0,0,0,0,0,0,0,0,0,0,0,0],"split_type":[0,0,0,0,0,0,0,0,0,0,0,0,0,0,0,0,0,0,0,0,0,0,0,0,0,0,0,0,0,0,0,0,0,0,0,0,0,0,0,0,0,0,0,0,0,0,0,0,0,0,0,0,0,0,0,0,0,0,0,0,0,0,0,0,0,0,0,0,0,0,0,0,0,0,0,0,0,0,0,0,0,0,0,0,0,0,0,0,0,0,0,0,0,0,0,0,0,0,0,0,0,0,0,0,0,0,0,0,0,0,0,0,0,0,0,0,0,0,0,0,0,0,0,0,0],"sum_hessian":[4E2,5E0,3.95E2,3E0,2E0,3.77E2,1.8E1,1.26E2,2.51E2,8E0,1E1,4E1,8.6E1,4.6E1,2.05E2,2E0,6E0,4E0,6E0,5E0,3.5E1,3.8E1,4.8E1,1.4E1,3.2E1,9.3E1,1.12E2,5E0,1E0,2E0,2E0,1E0,5E0,3E0,2E0,1.7E1,1.8E1,2.5E1,1.3E1,4.6E1,2E0,4E0,1E1,2.2E1,1E1,3.5E1,5.8E1,1.05E2,7E0,3E0,2E0,2E0,1E0,1.4E1,3E0,1.3E1,5E0,1.7E1,8E0,7E0,6E0,1.7E1,2.9E1,1E0,3E0,5E0,5E0,1.3E1,9E0,1E0,9E0,1E1,2.5E1,1E1,4.8E1,1.01E2,4E0,3E0,4E0,2E0,1E0,1E0,1E0,3E0,1.1E1,1E0,2E0,3E0,1E1,1E0,4E0,7E0,1E1,7E0,1E0,5E0,2E0,2E0,1.5E1,6E0,2.3E1,3E0,2E0,3E0,2E0,1.1E1,2E0,3E0,6E0,7E0,2E0,1E0,9E0,2E0,2.3E1,3E0,7E0,6E0,4.2E1,7.7E1,2.4E1,1E0,3E0,1E0,3E0],"tree_param":{"num_deleted":"0","num_feature":"13","num_nodes":"125","size_leaf_vector":"0"}},{"base_weights":[4.621919E-1,2.116483E0,4.3595976E-1,2.6301203E0,7.2613907E-1,3.9411122E-1,1.2455798E0,2.320334E-1,4.9064943E-1,1.6569862E0,7.957401E-1,8.890022E-1,2.0673212E-1,1.0072862E0,4.407721E-1,1.2911747E0,3.2818112E-1,3.7817955E-2,1.0923438E0,2.8313205E-1,2.9580383E-2,1.6920288E0,7.303487E-1,6.457532E-1,3.5272297E-1,1.6165619E0,5.353959E-1,-3.1183243E-1,4.8682213E-1,7.0377433E-1,1.647344E-1,-4.6310276E-1,1.5542518E-1,2.9876027E-1,9.5942575E-1,2.9522339E-1,8.935662E-1,-3.3967208E-2,4.0739763E-1,2.1129227E-1,6.9192123E-1,-3.0724192E-1,7.6968724E-1,-1.2081002E-1,3.3036813E-1,-6.21466E-1,6.0778935E-2,4.1752002E-1,-8.7261E-2,4.3679523E-1,8.603525E-2,5.09676E-1,1.3072402E0,5.281886E-1,-1.12830944E-1,1.306678E0,5.1659155E-1,1.8173161E-1,-9.421954E-1,1.0814295E-1,4.846966E-1,2.3935954E-1,6.354523E-2,9.185186E-1,1.3948937E-1,-3.7637427E-2,-8.290933E-1,5.1165366E-1,-4.0972542E-2,-8.370905E-1,-5.493641E-2,9.579611E-2,-4.6277046E-3,5.1574916E-1,-2.1279907E-1,9.7005956E-2,-1.1023535E0,1.675911E-1,2.986272E-3,1.481018E-1,5.523704E-1,1.4584227E0,3.5125542E-1,7.883165E-1,2.9098752E-1,2.8718615E-1,-2.9873562E-1,1.4752867E0,2.8075218E-2,1.340237E0,1.7543757E-1,-8.685147E-2,5.7782906E-1,-2.8592438E-1,2.2337462E-1,4.4628775E-1,2.278017E0],"categories":[],"categories_nodes":[],"categories_segments":[],"categories_sizes":[],"default_left":[true,true,true,false,false,true,true,true,true,false,true,true,true,true,true,true,true,false,false,true,true,false,true,true,true,false,false,false,true,true,true,true,true,true,true,true,true,true,true,true,false,false,true,true,true,true,true,true,true,false,true,true,true,true,true,true,true,true,false,true,true,false,false,false,false,false,false,false,false,false,false,false,false,false,false,false,false,false,false,false,false,false,false,false,false,false,false,false,false,false,false,false,false,false,false,false,false],"id":12,"left_children":[1,3,5,-1,-1,7,9,11,13,-1,15,17,19,21,23,25,27,-1,-1,29,31,-1,33,35,37,-1,-1,-1,39,41,43,45,47,49,51,53,55,57,59,61,-1,-1,63,65,67,69,71,73,75,-1,77,79,81,83,85,87,89,91,-1,93,95,-1,-1,-1,-1,-1,-1,-1,-1,-1,-1,-1,-1,-1,-1,-1,-1,-1,-1,-1,-1,-1,-1,-1,-1,-1,-1,-1,-1,-1,-1,-1,-1,-1,-1,-1,-1],"loss_changes":[1.647895E1,2.3749619E0,1.292614E1,0E0,0E0,5.800606E0,2.1977406E0,2.193183E0,5.637371E0,0E0,2.1243548E0,8.240957E-1,1.8729033E0,2.5568466E0,3.6887321E0,3.6410236E-1,8.625337E-1,0E0,0E0,4.7149615E0,2.738047E0,0E0,1.2952328E0,5.2956123E0,3.2697296E0,0E0,0E0,0E0,1.92868E-1,1.6358995E0,3.6816876E0,7.844442E-1,2.2626712E0,1.6796464E-1,8.9802647E-1,2.721345E0,5.0870895E0,4.0893016E0,3.0704136E0,1.3772696E-3,0E0,0E0,1.7477407E0,1.677178E0,3.31958E0,8.0911684E-1,7.314383E-3,1.1623178E0,3.6608465E0,0E0,2.6592048E-2,1.0816336E-2,2.1036148E-1,8.8125706E-1,9.038083E-1,3.6235008E0,5.6656613E0,1.8587316E0,0E0,1.3807302E0,6.353441E0,0E0,0E0,0E0,0E0,0E0,0E0,0E0,0E0,0E0,0E0,0E0,0E0,0E0,0E0,0E0,0E0,0E0,0E0,0E0,0E0,0E0,0E0,0E0,0E0,0E0,0E0,0E0,0E0,0E0,0E0,0E0,0E0,0E0,0E0,0E0,0E0],"parents":[2147483647,0,0,1,1,2,2,5,5,6,6,7,7,8,8,10,10,11,11,12,12,13,13,14,14,15,15,16,16,19,19,20,20,22,22,23,23,24,24,28,28,29,29,30,30,31,31,32,32,33,33,34,34,35,35,36,36,37,37,38,38,39,39,42,42,43,43,44,44,45,45,46,46,47,47,48,48,50,50,51,51,52,52,53,53,54,54,55,55,56,56,57,57,59,59,60,60],"right_children":[2,4,6,-1,-1,8,10,12,14,-1,16,18,20,22,24,26,28,-1,-1,30,32,-1,34,36,38,-1,-1,-1,40,42,44,46,48,50,52,54,56,58,60,62,-1,-1,64,66,68,70,72,74,76,-1,78,80,82,84,86,88,90,92,-1,94,96,-1,-1,-1,-1,-1,-1,-1,-1,-1,-1,-1,-1,-1,-1,-1,-1,-1,-1,-1,-1,-1,-1,-1,-1,-1,-1,-1,-1,-1,-1,-1,-1,-1,-1,-1,-1],"split_conditions":[1.2593501E0,1.01702E1,7.8255E0,7.890361E-1,2.1784173E-1,6.049E0,2.7E2,7.41E0,2.225E2,4.9709588E-1,3.83525E2,5.8026004E-1,9.39E1,6.5895004E0,3.8637E2,1.2685599E0,8.054501E0,1.13453865E-2,3.2770315E-1,1.6849998E1,9.515E1,5.0760865E-1,3.6959999E0,3.7404498E2,3.90125E2,4.8496857E-1,1.6061878E-1,-9.354973E-2,3.185E2,5.099E0,1.1575E1,5.881E0,2.1521149E0,7E0,4.6099998E-2,1.127E1,4.35055E0,5.5E0,2.7187E0,7.715E1,2.0757638E-1,-9.217258E-2,6.0065002E0,1.1344999E1,4.4280996E0,1.9900002E1,7.0550303E0,5.8564997E0,5.73E0,1.3103858E-1,6.7325E0,1.83E-2,5E-1,6.3815002E0,1.68175E0,9.895E1,1.635E1,6.8065E0,-2.8265864E-1,2.4287501E-1,9.52E1,7.180787E-2,1.906357E-2,2.7555558E-1,4.184681E-2,-1.1291228E-2,-2.4872799E-1,1.534961E-1,-1.2291763E-2,-2.5112715E-1,-1.6480923E-2,2.8738834E-2,-1.3883114E-3,1.5472475E-1,-6.3839726E-2,2.9101787E-2,-3.3070606E-1,5.027733E-2,8.958817E-4,4.4430543E-2,1.6571113E-1,4.3752682E-1,1.0537663E-1,2.3649496E-1,8.729626E-2,8.615585E-2,-8.962069E-2,4.4258603E-1,8.422566E-3,4.0207112E-1,5.2631274E-2,-2.6055442E-2,1.7334872E-1,-8.577731E-2,6.701239E-2,1.3388634E-1,6.8340516E-1],"split_indices":[7,0,5,0,0,5,9,12,9,0,11,0,6,5,11,0,5,0,0,10,6,0,7,11,11,0,0,0,9,5,12,5,0,12,0,12,7,8,7,6,0,0,5,12,7,12,0,5,5,0,5,0,3,5,7,6,10,5,0,0,6,0,0,0,0,0,0,0,0,0,0,0,0,0,0,0,0,0,0,0,0,0,0,0,0,0,0,0,0,0,0,0,0,0,0,0,0],"split_type":[0,0,0,0,0,0,0,0,0,0,0,0,0,0,0,0,0,0,0,0,0,0,0,0,0,0,0,0,0,0,0,0,0,0,0,0,0,0,0,0,0,0,0,0,0,0,0,0,0,0,0,0,0,0,0,0,0,0,0,0,0,0,0,0,0,0,0,0,0,0,0,0,0,0,0,0,0,0,0,0,0,0,0,0,0,0,0,0,0,0,0,0,0,0,0,0,0],"sum_hessian":[4E2,5E0,3.95E2,3E0,2E0,3.77E2,1.8E1,1.42E2,2.35E2,8E0,1E1,4E0,1.38E2,1.9E1,2.16E2,4E0,6E0,1E0,3E0,9.6E1,4.2E1,4E0,1.5E1,6.3E1,1.53E2,2E0,2E0,1E0,5E0,2E1,7.6E1,8E0,3.4E1,6E0,9E0,2.7E1,3.6E1,1.9E1,1.34E2,3E0,2E0,1E0,1.9E1,2.8E1,4.8E1,6E0,2E0,1.6E1,1.8E1,3E0,3E0,5E0,4E0,1.7E1,1E1,1.6E1,2E1,1.6E1,3E0,2.8E1,1.06E2,2E0,1E0,1.5E1,4E0,2.6E1,2E0,3.2E1,1.6E1,4E0,2E0,1E0,1E0,1.4E1,2E0,1.6E1,2E0,1E0,2E0,1E0,4E0,3E0,1E0,7E0,1E1,3E0,7E0,1.4E1,2E0,5E0,1.5E1,1E1,6E0,6E0,2.2E1,1.05E2,1E0],"tree_param":{"num_deleted":"0","num_feature":"13","num_nodes":"97","size_leaf_vector":"0"}},{"base_weights":[3.3770153E-1,1.6493511E0,3.1697527E-1,2.0383434E0,5.80911E-1,2.8467837E-1,9.4283086E-1,6.232453E-1,2.5685912E-1,1.2233559E0,5.680227E-1,8.9615417E-1,2.863254E-1,6.14826E-1,2.3452118E-1,2.819214E-1,1.2966352E0,1.097425E0,1.8436106E-1,4.6202946E-1,1.2182596E0,2.3700714E-2,3.8900518E-1,8.5131246E-1,3.4394506E-1,3.736703E-1,1.8201935E-1,4.8417535E-1,1.4595985E0,1.2932485E0,2.5497723E-1,3.034401E-1,-2.650566E-1,5.265929E-1,1.7889278E-1,1.3069918E0,2.9856682E-1,1.3930511E-1,-4.0026665E-2,1.1734676E-1,5.50553E-1,3.2017097E-1,1.1520449E0,4.4273376E-3,5.373227E-1,8.8594645E-1,3.0581313E-1,4.3830037E-2,2.3768075E-1,3.4252244E-1,5.4014206E-2,5.7459563E-1,1.4328957E-1,2.3886363E-3,-8.3636284E-2,2.380259E-1,-1.826849E-1,1.2620227E-1,4.0741602E-1,1.5366888E-1,-2.9626942E-1,1.8558502E-2,7.411167E-1,4.8502186E-1,1.3660779E0,2.6369348E-1,1.0506935E0,1.5902787E-1,-1.7449509E-1,6.8981534E-1,1.8072438E-1,6.4935684E-3,-2.910614E-3,3.3217493E-1,-2.2210598E-2,2.1181297E-1,-1.0381699E-2,6.0934067E-2,-3.3096313E-2,6.8705684E-1,-3.6359406E-1,1.967476E-1,6.1550015E-1,3.4437615E-2,4.8223025E-1,8.0486363E-1,-2.946508E-1,2.030357E-1,1.208122E0,3.259876E-1,5.406155E-2],"categories":[],"categories_nodes":[],"categories_segments":[],"categories_sizes":[],"default_left":[true,true,true,false,false,true,true,true,true,true,true,true,true,true,true,false,true,true,true,true,true,true,true,true,true,true,true,false,false,false,false,true,false,true,false,false,false,false,true,true,false,true,false,true,true,true,true,true,true,false,false,false,false,true,false,true,false,false,false,true,false,true,false,true,false,true,false,true,true,true,true,false,false,false,false,false,false,false,false,false,false,false,false,false,false,false,false,false,false,false,false],"id":13,"left_children":[1,3,5,-1,-1,7,9,11,13,15,17,19,21,23,25,-1,27,29,31,33,35,37,39,41,43,45,47,-1,-1,-1,-1,49,-1,51,-1,-1,-1,-1,53,55,-1,57,-1,59,61,63,65,67,69,-1,-1,-1,-1,71,-1,73,-1,-1,-1,75,-1,77,-1,79,-1,81,-1,83,85,87,89,-1,-1,-1,-1,-1,-1,-1,-1,-1,-1,-1,-1,-1,-1,-1,-1,-1,-1,-1,-1],"loss_changes":[1.0378616E1,1.3095932E0,7.736027E0,0E0,0E0,3.4001694E0,1.302824E0,2.3179636E0,2.6624928E0,3.2432652E-1,1.8287916E0,1.5346365E0,3.683077E-1,9.8838806E-1,2.357439E0,0E0,4.8491E-1,3.3013535E-1,4.5504242E-1,5.203855E-2,2.626276E-1,4.2411745E-2,3.7425268E-1,1.2284632E0,7.1982753E-1,2.8576107E0,1.8586922E0,0E0,0E0,0E0,0E0,3.9987743E-2,0E0,2.8064013E-2,0E0,0E0,0E0,0E0,7.598637E-3,2.2452155E-1,0E0,3.3197224E-2,0E0,2.6990962E-1,7.262933E-1,1.2623873E0,2.2642426E0,1.8134408E0,4.3304195E0,0E0,0E0,0E0,0E0,8.415946E-5,0E0,1.05381876E-1,0E0,0E0,0E0,4.035326E-2,0E0,8.583399E-3,0E0,1.4499605E0,0E0,1.7159581E0,0E0,1.8759829E0,3.1790419E0,4.5484304E0,2.834292E0,0E0,0E0,0E0,0E0,0E0,0E0,0E0,0E0,0E0,0E0,0E0,0E0,0E0,0E0,0E0,0E0,0E0,0E0,0E0,0E0],"parents":[2147483647,0,0,1,1,2,2,5,5,6,6,7,7,8,8,9,9,10,10,11,11,12,12,13,13,14,14,16,16,17,17,18,18,19,19,20,20,21,21,22,22,23,23,24,24,25,25,26,26,31,31,33,33,38,38,39,39,41,41,43,43,44,44,45,45,46,46,47,47,48,48,53,53,55,55,59,59,61,61,63,63,65,65,67,67,68,68,69,69,70,70],"right_children":[2,4,6,-1,-1,8,10,12,14,16,18,20,22,24,26,-1,28,30,32,34,36,38,40,42,44,46,48,-1,-1,-1,-1,50,-1,52,-1,-1,-1,-1,54,56,-1,58,-1,60,62,64,66,68,70,-1,-1,-1,-1,72,-1,74,-1,-1,-1,76,-1,78,-1,80,-1,82,-1,84,86,88,90,-1,-1,-1,-1,-1,-1,-1,-1,-1,-1,-1,-1,-1,-1,-1,-1,-1,-1,-1,-1],"split_conditions":[1.2593501E0,1.01702E1,7.8255E0,6.1150306E-1,1.742733E-1,2.225E2,1.605E1,6.925E1,3.9900002E0,7.8640003E0,3.83525E2,5.497E-2,7.334E-2,3.89955E2,4.025E1,8.457642E-2,2.10395E0,2.000605E0,8.24E1,2.65E1,5E-1,5.9370003E0,3.822E2,2.78E1,4.5730002E-2,4.1959E0,1.293E-1,1.4525262E-1,4.378796E-1,3.879746E-1,7.6493174E-2,7.715E1,-7.9516985E-2,3.94375E2,5.3667836E-2,3.9209756E-1,8.9570045E-2,4.1791536E-2,6.8765E-2,3.78735E2,1.6516592E-1,6.7545E0,3.4561348E-1,3.4305E-2,3E1,6.293E0,3.2165E-1,8.969E-2,1.7127001E-1,1.0275674E-1,1.6204262E-2,1.7237869E-1,4.298687E-2,5.76E-2,-2.5090886E-2,2.68865E-1,-5.4805472E-2,3.7860684E-2,1.2222481E-1,7.3170004E0,-8.888083E-2,3.11185E-1,2.2233503E-1,3.89635E0,4.098234E-1,6.945E0,3.1520808E-1,6.5294996E-2,3.7320502E2,1.4375E1,1.4145E1,1.9480706E-3,-8.7318424E-4,9.9652484E-2,-6.6631795E-3,6.354389E-2,-3.1145096E-3,1.8280221E-2,-9.928894E-3,2.0611706E-1,-1.0907822E-1,5.902428E-2,1.8465005E-1,1.0331285E-2,1.4466909E-1,2.414591E-1,-8.839524E-2,6.0910713E-2,3.6243662E-1,9.779628E-2,1.6218467E-2],"split_indices":[7,0,5,0,0,9,10,6,12,5,11,0,0,11,6,0,7,0,6,1,3,5,11,6,0,7,0,0,0,0,0,6,0,11,0,0,0,0,0,11,0,5,0,0,1,5,0,0,0,0,0,0,0,0,0,0,0,0,0,5,0,0,0,7,0,5,0,0,11,12,12,0,0,0,0,0,0,0,0,0,0,0,0,0,0,0,0,0,0,0,0],"split_type":[0,0,0,0,0,0,0,0,0,0,0,0,0,0,0,0,0,0,0,0,0,0,0,0,0,0,0,0,0,0,0,0,0,0,0,0,0,0,0,0,0,0,0,0,0,0,0,0,0,0,0,0,0,0,0,0,0,0,0,0,0,0,0,0,0,0,0,0,0,0,0,0,0,0,0,0,0,0,0,0,0,0,0,0,0,0,0,0,0,0,0],"sum_hessian":[4E2,5E0,3.95E2,3E0,2E0,3.77E2,1.8E1,2.7E1,3.5E2,9E0,9E0,1.4E1,1.3E1,1.9E1,3.31E2,1E0,8E0,3E0,6E0,7E0,7E0,4E0,9E0,9E0,1E1,8.9E1,2.42E2,2E0,6E0,2E0,1E0,5E0,1E0,5E0,2E0,6E0,1E0,1E0,3E0,4E0,5E0,4E0,5E0,4E0,6E0,9E0,8E1,7E1,1.72E2,4E0,1E0,4E0,1E0,2E0,1E0,3E0,1E0,2E0,2E0,3E0,1E0,2E0,4E0,6E0,3E0,7.7E1,3E0,4.6E1,2.4E1,1.8E1,1.54E2,1E0,1E0,2E0,1E0,2E0,1E0,1E0,1E0,5E0,1E0,6.6E1,1.1E1,3.4E1,1.2E1,2E0,2.2E1,1E1,8E0,7.1E1,8.3E1],"tree_param":{"num_deleted":"0","num_feature":"13","num_nodes":"91","size_leaf_vector":"0"}},{"base_weights":[2.5022727E-1,1.2855082E0,2.3390932E-1,2.1600647E0,6.785839E-1,2.0877469E-1,7.216455E-1,1.0097545E-1,2.7320907E-1,5.120664E-1,1.0903889E0,7.9966736E-1,8.5393526E-2,2.922479E-1,-1.8629304E-1,7.666217E-1,2.2532225E-1,1.3941488E0,3.2191277E-1,1.20109424E-1,-2.3810853E-1,2.4799831E-1,7.3783106E-1,-2.7611923E-1,3.110714E-1,3.2188198E-1,-2.2529793E-1,9.100493E-2,6.967333E-1,-4.496116E-1,1.1883084E-1,6.878689E-1,2.1270935E-1,1.5021921E0,4.528538E-1,-3.129692E-1,9.340286E-3,4.481001E-1,1.1519337E-1,1.1653102E-1,-2.9049897E-1,8.837881E-1,-1.19270325E-1,-8.482857E-1,-2.9374164E-1,1.9148465E-1,-1.22219086E-1,3.6231726E-1,1.11581E0,4.2135304E-1,1.2498907E-1,1.0960584E0,2.2010979E-1,-1.685421E-1,-4.152608E-1,2.1885276E-2,2.2862151E-1,2.6225471E-1,-4.0692875E-1,2.1165213E-2,-4.0223813E-1,2.6746058E-1,-5.6209564E-2,1.4581044E-2,7.071373E-1,1.2979865E0,5.009715E-1,4.9657568E-1,1.8149186E-2,-1.35882E-1,1.7563601E-1,1.234981E0,3.396454E-1,5.9683263E-1,-1.363733E-2],"categories":[],"categories_nodes":[],"categories_segments":[],"categories_sizes":[],"default_left":[true,true,true,false,false,true,true,true,true,true,true,false,true,true,true,false,true,false,false,true,true,true,true,true,false,true,false,true,true,true,true,true,true,false,true,true,false,false,false,true,true,false,false,false,true,true,false,true,true,true,true,true,true,false,false,false,false,false,false,false,false,false,false,false,false,false,false,false,false,false,false,false,false,false,false],"id":14,"left_children":[1,3,5,-1,-1,7,9,11,13,15,17,-1,19,21,23,-1,25,-1,-1,27,29,31,33,35,-1,37,-1,39,41,43,45,47,49,-1,51,53,-1,-1,-1,55,57,-1,-1,-1,59,61,-1,63,65,67,69,71,73,-1,-1,-1,-1,-1,-1,-1,-1,-1,-1,-1,-1,-1,-1,-1,-1,-1,-1,-1,-1,-1,-1],"loss_changes":[6.473669E0,1.7189531E0,4.703932E0,0E0,0E0,2.597992E0,9.0998554E-1,1.4885495E0,2.1190624E0,8.491545E-1,9.517994E-1,0E0,1.6121228E0,4.2927475E0,5.3265643E-1,0E0,4.2061344E-1,0E0,0E0,2.0847344E0,1.1103406E0,3.0823784E0,3.676237E0,9.759581E-2,0E0,1.3099676E-1,0E0,1.2316632E0,1.021234E0,3.1009495E-1,1.2848225E-1,1.6854773E0,3.49798E0,0E0,2.1539786E0,4.8200488E-2,0E0,0E0,0E0,1.2256275E0,6.2157494E-1,0E0,0E0,0E0,2.8184378E-1,1.0912782E-1,0E0,1.1887532E0,2.1800041E-2,1.7198E0,1.8471661E0,8.7594986E-4,1.1528919E0,0E0,0E0,0E0,0E0,0E0,0E0,0E0,0E0,0E0,0E0,0E0,0E0,0E0,0E0,0E0,0E0,0E0,0E0,0E0,0E0,0E0,0E0],"parents":[2147483647,0,0,1,1,2,2,5,5,6,6,7,7,8,8,9,9,10,10,12,12,13,13,14,14,16,16,19,19,20,20,21,21,22,22,23,23,25,25,27,27,28,28,29,29,30,30,31,31,32,32,34,34,35,35,39,39,40,40,44,44,45,45,47,47,48,48,49,49,50,50,51,51,52,52],"right_children":[2,4,6,-1,-1,8,10,12,14,16,18,-1,20,22,24,-1,26,-1,-1,28,30,32,34,36,-1,38,-1,40,42,44,46,48,50,-1,52,54,-1,-1,-1,56,58,-1,-1,-1,60,62,-1,64,66,68,70,72,74,-1,-1,-1,-1,-1,-1,-1,-1,-1,-1,-1,-1,-1,-1,-1,-1,-1,-1,-1,-1,-1,-1],"split_conditions":[1.2593501E0,7.403005E0,7.8255E0,6.4801943E-1,2.0357518E-1,6.049E0,4.54E0,4.1155E0,9.8850006E1,1.605E1,5.9494E-1,2.3990022E-1,7.3170853E0,9.605E1,7.0875E0,2.2998652E-1,8.24E1,4.1824466E-1,9.657384E-2,3.6875849E0,9.945E1,6.1125E0,9.6850006E1,3.9597E2,9.332142E-2,7.1850006E1,-6.758938E-2,6.0205E0,5E-1,7.91188E0,3.1372799E1,1.03E1,2.675E2,4.5065767E-1,1.1690001E1,1.745E1,2.802086E-3,1.3443004E-1,3.4558013E-2,1.4555E1,5.625E0,2.6513645E-1,-3.57811E-2,-2.5448573E-1,2.3265E1,5.528E0,-3.6665726E-2,2.31575E-1,3.8603E2,6.39725E0,2.7187E0,1.5286751E0,1.6972001E0,-5.056263E-2,-1.24578245E-1,6.565583E-3,6.8586454E-2,7.867642E-2,-1.2207863E-1,6.349564E-3,-1.2067144E-1,8.023818E-2,-1.686287E-2,4.3743136E-3,2.121412E-1,3.8939598E-1,1.5029146E-1,1.489727E-1,5.444756E-3,-4.0764604E-2,5.2690804E-2,3.704943E-1,1.0189362E-1,1.7904979E-1,-4.0911995E-3],"split_indices":[7,0,5,0,0,5,12,5,6,10,0,0,0,6,5,0,6,0,0,0,6,5,6,11,0,6,0,5,3,0,0,2,9,0,12,10,0,0,0,12,2,0,0,0,12,5,0,0,11,7,7,0,7,0,0,0,0,0,0,0,0,0,0,0,0,0,0,0,0,0,0,0,0,0,0],"split_type":[0,0,0,0,0,0,0,0,0,0,0,0,0,0,0,0,0,0,0,0,0,0,0,0,0,0,0,0,0,0,0,0,0,0,0,0,0,0,0,0,0,0,0,0,0,0,0,0,0,0,0,0,0,0,0,0,0,0,0,0,0,0,0,0,0,0,0,0,0,0,0,0,0,0,0],"sum_hessian":[4E2,5E0,3.95E2,1E0,4E0,3.77E2,1.8E1,1.42E2,2.35E2,1.3E1,5E0,2E0,1.4E2,2.26E2,9E0,6E0,7E0,3E0,2E0,1.27E2,1.3E1,2.07E2,1.9E1,8E0,1E0,6E0,1E0,1.22E2,5E0,8E0,5E0,1.4E1,1.93E2,4E0,1.5E1,7E0,1E0,3E0,3E0,1.15E2,7E0,4E0,1E0,1E0,7E0,4E0,1E0,9E0,5E0,5.6E1,1.37E2,3E0,1.2E1,4E0,3E0,6.3E1,5.2E1,1E0,6E0,2E0,5E0,3E0,1E0,5E0,4E0,3E0,2E0,4.7E1,9E0,2.2E1,1.15E2,2E0,1E0,4E0,8E0],"tree_param":{"num_deleted":"0","num_feature":"13","num_nodes":"75","size_leaf_vector":"0"}},{"base_weights":[1.846311E-1,1.0417885E0,1.7117763E-1,1.8360558E0,5.157238E-1,1.5169908E-1,5.4968864E-1,4.0497545E-2,1.9545579E-1,8.559678E-1,3.7916264E-1,8.4225945E-2,-3.527643E-1,4.2631248E-1,1.7334671E-1,3.6549473E-1,1.2246094E0,5.308067E-1,4.196167E-5,1.9762024E-1,-6.540911E-2,-4.352953E-1,1.241684E-2,5.5745125E-1,1.6037983E-1,-2.0376702E-1,1.883375E-1,5.734723E-1,7.340813E-2,-1.9150352E-1,9.5804214E-2,1.24855176E-1,9.148529E-1,-4.7375405E-1,2.7151134E-2,-4.994921E-1,-1.4040439E-1,-2.0399094E-2,3.9024353E-2,3.4243885E-1,1.0631256E0,-7.335091E-2,3.6203462E-1,-3.6143646E-1,-3.841464E-2,2.8826946E-1,1.3751209E-1,2.4670792E-1,6.315896E-1,2.8633118E-2,1.0865021E-1,-1.8654516E-2,2.8059185E-1,2.1433258E-1,1.0363998E0,-6.158845E-1,-3.1575203E-2,2.1910572E-1,-1.04961134E-1,-5.468194E-1,-1.07764244E-1,4.0966663E-1,4.1999817E-3,-1.1014986E-1,3.6922455E-2,9.64489E-2,4.043188E-1,-7.095051E-2,-4.1632032E-1,1.7191632E-1,-1.865592E-1,1.5774041E-1,4.2144766E-1,4.8854623E-2,2.8995624E-1,6.4630765E-1,-9.4663434E-2,5.2497345E-1,-3.0434078E-1,-2.2534116E-1,-7.548208E-1,-2.2811604E-1,4.655282E-1,-7.2104263E-1,-4.128856E-2,2.838936E-1,6.085059E-1,4.7309875E-2,-4.1009903E-2,2.229166E-1,3.4957886E-2,-2.6177406E-2,-2.3129399E-1,8.195093E-2,5.2498055E-1,2.1088634E-1,6.553866E-1,9.523105E-2,-6.0076934E-1,5.519897E-1,5.1615864E-2],"categories":[],"categories_nodes":[],"categories_segments":[],"categories_sizes":[],"default_left":[true,true,true,false,false,true,true,true,true,true,true,true,true,true,true,false,false,true,true,true,true,true,true,true,true,true,true,true,false,false,true,true,true,true,true,true,false,false,false,true,false,true,true,true,true,true,true,false,false,false,false,true,true,false,false,true,false,true,true,false,false,true,true,false,false,false,false,false,false,true,true,true,true,true,true,false,false,false,false,false,false,false,false,false,false,false,false,false,false,false,false,false,false,false,false,false,false,false,false,false,false],"id":15,"left_children":[1,3,5,-1,-1,7,9,11,13,15,17,19,21,23,25,-1,-1,27,29,31,33,35,37,39,41,43,45,47,-1,-1,49,51,53,55,57,59,-1,-1,-1,61,-1,63,65,67,69,71,73,-1,-1,-1,-1,75,77,-1,-1,79,-1,81,83,-1,-1,85,87,-1,-1,-1,-1,-1,-1,89,91,93,95,97,99,-1,-1,-1,-1,-1,-1,-1,-1,-1,-1,-1,-1,-1,-1,-1,-1,-1,-1,-1,-1,-1,-1,-1,-1,-1,-1],"loss_changes":[4.445898E0,1.5601182E0,2.836258E0,0E0,0E0,1.8313618E0,6.6779137E-1,1.8869566E0,1.3092918E0,6.3726425E-1,8.048575E-1,1.675767E0,3.3693147E-1,7.126999E-1,1.4460316E0,0E0,0E0,1.5305448E-1,1.1006098E-1,2.8083868E0,1.6381127E0,1.00248575E-1,3.4155126E-3,1.2668386E0,4.5075184E-1,2.468257E-1,1.1793394E0,1.5097618E-2,0E0,0E0,3.4052506E-4,1.1674197E0,2.0359612E-1,4.8332977E-1,9.3594164E-1,7.0848346E-2,0E0,0E0,0E0,2.7114797E-1,0E0,2.4356727E-2,1.7154276E-2,5.017686E-2,2.190289E-1,1.3242106E0,2.1617994E0,0E0,0E0,0E0,0E0,1.4763873E0,3.7334402E0,0E0,0E0,1.554718E-1,0E0,1.7592769E0,8.332341E-1,0E0,0E0,7.733536E-2,7.787153E-3,0E0,0E0,0E0,0E0,0E0,0E0,1.3162062E-2,2.2643909E-2,1.1259608E0,1.7828693E0,3.160317E0,3.6562448E0,0E0,0E0,0E0,0E0,0E0,0E0,0E0,0E0,0E0,0E0,0E0,0E0,0E0,0E0,0E0,0E0,0E0,0E0,0E0,0E0,0E0,0E0,0E0,0E0,0E0,0E0],"parents":[2147483647,0,0,1,1,2,2,5,5,6,6,7,7,8,8,9,9,10,10,11,11,12,12,13,13,14,14,17,17,18,18,19,19,20,20,21,21,22,22,23,23,24,24,25,25,26,26,27,27,30,30,31,31,32,32,33,33,34,34,35,35,39,39,41,41,42,42,43,43,44,44,45,45,46,46,51,51,52,52,55,55,57,57,58,58,61,61,62,62,69,69,70,70,71,71,72,72,73,73,74,74],"right_children":[2,4,6,-1,-1,8,10,12,14,16,18,20,22,24,26,-1,-1,28,30,32,34,36,38,40,42,44,46,48,-1,-1,50,52,54,56,58,60,-1,-1,-1,62,-1,64,66,68,70,72,74,-1,-1,-1,-1,76,78,-1,-1,80,-1,82,84,-1,-1,86,88,-1,-1,-1,-1,-1,-1,90,92,94,96,98,100,-1,-1,-1,-1,-1,-1,-1,-1,-1,-1,-1,-1,-1,-1,-1,-1,-1,-1,-1,-1,-1,-1,-1,-1,-1,-1],"split_conditions":[1.2593501E0,7.403005E0,7.8255E0,5.508168E-1,1.5471715E-1,5.934E0,3.8479498E2,5.89E0,2.225E2,3.80475E2,6E0,9.39E1,1.995E1,6.955E1,2.25E2,1.0964842E-1,3.6738282E-1,1.79E1,8.1495E0,9.13E1,9.515E1,5.4550004E-1,3.90335E-1,6.5085E-2,8.303E-2,7.24E0,4.025E1,7.8640003E0,2.202244E-2,-5.745106E-2,3.42135E-1,1.312E1,1.2067801E0,2.5903249E0,1.99E1,5E-1,-4.2121317E-2,-6.1197286E-3,1.1707306E-2,3.94375E2,3.189377E-1,7.334E-2,9.201001E-2,6.13E0,8.26E0,7.3984995E-2,5.2735E-1,7.401238E-2,1.8947689E-1,8.5899355E-3,3.2595064E-2,3.16135E2,3.32665E-1,6.429978E-2,3.1091997E-1,9.435E1,-9.472561E-3,1.9650002E1,2.0385E1,-1.6404583E-1,-3.2329276E-2,3.9352E2,4.5084998E-2,-3.304496E-2,1.1076737E-2,2.893467E-2,1.21295646E-1,-2.1285154E-2,-1.248961E-1,7.7105E-2,4.4014998E-2,3.415E1,2.145E1,4.3014503E-1,1.212E1,1.938923E-1,-2.8399032E-2,1.5749204E-1,-9.130224E-2,-6.760235E-2,-2.2644626E-1,-6.843481E-2,1.3965847E-1,-2.163128E-1,-1.2386568E-2,8.516808E-2,1.8255177E-1,1.4192963E-2,-1.2302971E-2,6.687498E-2,1.04873665E-2,-7.853222E-3,-6.93882E-2,2.458528E-2,1.5749417E-1,6.3265905E-2,1.96616E-1,2.8569316E-2,-1.8023081E-1,1.655969E-1,1.548476E-2],"split_indices":[7,0,5,0,0,5,11,5,9,11,8,6,10,6,9,0,0,10,5,6,6,4,0,0,0,12,6,5,0,0,0,12,0,0,12,3,0,0,0,11,0,0,0,12,12,0,0,0,0,0,0,11,0,0,0,6,0,10,12,0,0,11,0,0,0,0,0,0,0,0,0,6,6,0,12,0,0,0,0,0,0,0,0,0,0,0,0,0,0,0,0,0,0,0,0,0,0,0,0,0,0],"split_type":[0,0,0,0,0,0,0,0,0,0,0,0,0,0,0,0,0,0,0,0,0,0,0,0,0,0,0,0,0,0,0,0,0,0,0,0,0,0,0,0,0,0,0,0,0,0,0,0,0,0,0,0,0,0,0,0,0,0,0,0,0,0,0,0,0,0,0,0,0,0,0,0,0,0,0,0,0,0,0,0,0,0,0,0,0,0,0,0,0,0,0,0,0,0,0,0,0,0,0,0,0],"sum_hessian":[4E2,5E0,3.95E2,1E0,4E0,3.77E2,1.8E1,1.07E2,2.7E2,5E0,1.3E1,9.7E1,1E1,2.2E1,2.48E2,3E0,2E0,9E0,4E0,5.5E1,4.2E1,8E0,2E0,1.4E1,8E0,9E0,2.39E2,8E0,1E0,1E0,3E0,5.1E1,4E0,7E0,3.5E1,6E0,2E0,1E0,1E0,1.1E1,3E0,4E0,4E0,4E0,5E0,7.9E1,1.6E2,2E0,6E0,1E0,2E0,2.7E1,2.4E1,1E0,3E0,5E0,2E0,1.4E1,2.1E1,5E0,1E0,9E0,2E0,3E0,1E0,1E0,3E0,1E0,3E0,2E0,3E0,4.1E1,3.8E1,1.02E2,5.8E1,2E0,2.5E1,1.7E1,7E0,2E0,3E0,5E0,9E0,1E0,2E1,7E0,2E0,1E0,1E0,1E0,1E0,1E0,2E0,3.5E1,6E0,2.1E1,1.7E1,9.6E1,6E0,2.7E1,3.1E1],"tree_param":{"num_deleted":"0","num_feature":"13","num_nodes":"101","size_leaf_vector":"0"}},{"base_weights":[1.3524392E-1,8.4684116E-1,1.24120615E-1,1.560648E0,3.9195022E-1,1.0871595E-1,4.2405972E-1,1.9638093E-1,7.200129E-2,6.786826E-1,2.8464562E-1,3.782328E-1,1.3342576E-1,-4.6999976E-2,1.0804536E-1,8.8868713E-1,1.7244911E-1,4.0011635E-1,-3.2249452E-3,-2.9985332E-1,4.144528E-1,3.6025417E-1,7.049535E-2,2.9915305E-2,-3.4512916E-1,1.8342549E-1,4.4383623E-2,4.3070772E-1,6.2397003E-2,-1.6277885E-1,7.7358246E-2,7.0973426E-1,2.962898E-1,7.157049E-1,1.6848813E-1,-1.5050701E-2,3.2298672E-1,-1.11278266E-1,3.4573114E-1,-1.004219E-3,-5.600817E-1,1.114054E-1,7.1672195E-1,-2.2539964E-1,1.0131215E-1,4.5376778E-1,1.2311363E-1,1.7245483E-1,8.90155E-1,4.318507E-1,-3.652491E-2,9.623082E-1,3.518262E-1,-1.0236195E-2,3.2314274E-1,1.18388295E-1,-7.393885E-2,5.891696E-1,2.091641E-2,9.678734E-2,-5.354751E-1,-1.5930207E-1,5.897737E-1,-1.7004299E-1,2.2471555E-1,-6.8794185E-1,-1.1766752E-1,1.5740675E-1,-3.452832E-1,-4.2714436E-2,8.9023167E-1,-5.103464E-1,2.6581383E-1,4.5304096E-1,3.40966E-2,1.9736607E-1,5.063407E-1,-2.4358304E-1,5.545007E-1,7.64492E-2,-2.1264012E-1,-5.9676744E-2,7.557678E-2,1.5229607E-1,5.001729E-1,-3.0000167E-2,3.7070242E-1,-3.394184E-1,1.4034544E-2,1.7741776E-1,6.814676E-1,-1.5796947E-1,1.3668759E-1,2.1676569E-1,-1.4059258E-1,-3.5930204E-1,-7.1025693E-1,1.1418597E-1,-3.245926E-1,9.7905463E-1,2.274625E-1,-5.1656723E-2,-1.9228618E-1,-8.1720847E-1,-2.0804405E-2,2.1586514E-1,-3.923664E-1,-2.905285E-2,2.9064587E-1,1.3207436E-1,-6.5811265E-1,2.8596878E-2,-9.266853E-2,1.1850309E0,2.2547483E-1,-2.3105037E-1,-7.976834E-1,6.0282785E-1,-2.2190714E-1,6.089392E-1,-1.2791395E-1,4.691742E-1,-2.766217E-2],"categories":[],"categories_nodes":[],"categories_segments":[],"categories_sizes":[],"default_left":[true,true,true,false,false,true,true,true,true,true,true,true,true,true,true,false,false,true,true,false,true,true,true,true,true,true,true,true,false,false,false,true,true,true,true,true,true,true,true,true,true,true,true,true,true,true,false,false,false,true,true,false,false,true,true,true,true,true,true,true,true,true,true,true,false,true,true,true,true,true,true,true,true,true,true,false,false,false,false,false,false,false,false,false,false,false,false,false,false,false,false,false,false,false,false,false,false,false,false,false,false,false,false,false,false,false,false,false,false,false,false,false,false,false,false,false,false,false,false,false,false,false,false],"id":16,"left_children":[1,3,5,-1,-1,7,9,11,13,15,17,19,21,23,25,-1,-1,27,29,-1,31,33,35,37,39,41,43,45,-1,-1,-1,47,49,51,53,55,57,59,61,63,65,67,69,71,73,75,-1,-1,-1,77,79,-1,-1,81,83,85,87,89,91,93,95,97,99,101,-1,103,105,107,109,111,113,115,117,119,121,-1,-1,-1,-1,-1,-1,-1,-1,-1,-1,-1,-1,-1,-1,-1,-1,-1,-1,-1,-1,-1,-1,-1,-1,-1,-1,-1,-1,-1,-1,-1,-1,-1,-1,-1,-1,-1,-1,-1,-1,-1,-1,-1,-1,-1,-1,-1,-1],"loss_changes":[3.0689297E0,1.3365293E0,1.7836008E0,0E0,0E0,1.2024875E0,4.8127842E-1,1.2203193E0,1.1546078E0,4.8461437E-1,4.6665907E-1,8.119621E-1,1.1736537E0,1.4549581E0,9.804177E-1,0E0,0E0,7.643807E-2,7.68791E-2,0E0,7.317791E-1,1.1063533E0,1.4520371E0,2.3126218E0,9.6105444E-1,3.5305107E0,1.7583308E0,7.973313E-3,0E0,0E0,0E0,5.2504325E-1,9.63223E-1,1.9983697E-1,3.6263472E-1,4.0951023E-1,1.3545777E0,3.229215E0,2.0659456E0,2.6714367E-1,3.7158895E-1,1.8190463E0,1.4874911E0,2.935051E0,2.2068672E0,7.903814E-3,0E0,0E0,0E0,1.3776965E0,1.5553139E-1,0E0,0E0,3.420866E-2,1.3554084E-1,6.101692E-1,8.4554857E-1,2.2113037E-1,2.0798095E-1,7.4248683E-1,1.14305735E-1,3.0829382E-1,1.3287513E0,6.002784E-4,0E0,5.004301E-1,3.5956138E-1,1.9214098E0,1.2815719E0,1.3336908E-2,1.4965339E0,8.589723E-1,1.4487221E0,1.4364395E0,2.1625671E0,0E0,0E0,0E0,0E0,0E0,0E0,0E0,0E0,0E0,0E0,0E0,0E0,0E0,0E0,0E0,0E0,0E0,0E0,0E0,0E0,0E0,0E0,0E0,0E0,0E0,0E0,0E0,0E0,0E0,0E0,0E0,0E0,0E0,0E0,0E0,0E0,0E0,0E0,0E0,0E0,0E0,0E0,0E0,0E0,0E0,0E0,0E0,0E0],"parents":[2147483647,0,0,1,1,2,2,5,5,6,6,7,7,8,8,9,9,10,10,11,11,12,12,13,13,14,14,17,17,18,18,20,20,21,21,22,22,23,23,24,24,25,25,26,26,27,27,31,31,32,32,33,33,34,34,35,35,36,36,37,37,38,38,39,39,40,40,41,41,42,42,43,43,44,44,45,45,49,49,50,50,53,53,54,54,55,55,56,56,57,57,58,58,59,59,60,60,61,61,62,62,63,63,65,65,66,66,67,67,68,68,69,69,70,70,71,71,72,72,73,73,74,74],"right_children":[2,4,6,-1,-1,8,10,12,14,16,18,20,22,24,26,-1,-1,28,30,-1,32,34,36,38,40,42,44,46,-1,-1,-1,48,50,52,54,56,58,60,62,64,66,68,70,72,74,76,-1,-1,-1,78,80,-1,-1,82,84,86,88,90,92,94,96,98,100,102,-1,104,106,108,110,112,114,116,118,120,122,-1,-1,-1,-1,-1,-1,-1,-1,-1,-1,-1,-1,-1,-1,-1,-1,-1,-1,-1,-1,-1,-1,-1,-1,-1,-1,-1,-1,-1,-1,-1,-1,-1,-1,-1,-1,-1,-1,-1,-1,-1,-1,-1,-1,-1,-1,-1,-1],"split_conditions":[1.2593501E0,7.403005E0,7.8255E0,4.681944E-1,1.1758507E-1,2.78E2,3.8479498E2,3.53E1,3.045E2,1.294265E0,6E0,4.7E0,2.6750002E0,6.571E0,8.255E1,2.6660615E-1,5.1734734E-2,1.79E1,8.1495E0,-8.9956E-2,3.8985498E2,6.5895004E0,2.73E2,6.3365E0,4.455E0,7.85E1,8.91E1,8.551001E0,1.8719101E-2,-4.8833657E-2,2.3207474E-2,3.3400002E0,6.66E0,2.91745E0,3.6959999E0,4.565E-1,3.9339E2,2.4939E-1,3.25E1,2.6399999E0,6.235E1,1.182E1,4.5E0,9.7911E-1,1.1835E1,7.8640003E0,3.6934093E-2,5.173645E-2,2.670465E-1,3.4299998E0,1.8400002E1,2.8869247E-1,1.0554786E-1,7.0455E-2,4.376E-2,3.95775E2,7.08E0,5.69E1,3.94305E2,6.4884E0,3.9636E2,3.7706E2,3.9535498E2,1.765E0,6.7414664E-2,1.2790999E-1,2.688E-1,7.5595E-2,8.5470006E-2,1.086095E0,6.6665E0,3.88215E2,8.795E1,9.91E1,5.31E-1,5.9209824E-2,1.5190221E-1,-7.3074915E-2,1.6635022E-1,2.293476E-2,-6.379204E-2,-1.7903024E-2,2.2673035E-2,4.5688823E-2,1.5005188E-1,-9.000051E-3,1.11210726E-1,-1.0182553E-1,4.2103636E-3,5.3225327E-2,2.0444028E-1,-4.7390845E-2,4.100628E-2,6.502971E-2,-4.2177774E-2,-1.0779062E-1,-2.1307708E-1,3.425579E-2,-9.7377785E-2,2.937164E-1,6.823875E-2,-1.5497018E-2,-5.7685856E-2,-2.4516255E-1,-6.241322E-3,6.4759545E-2,-1.1770993E-1,-8.715855E-3,8.7193765E-2,3.9622307E-2,-1.974338E-1,8.579064E-3,-2.7800562E-2,3.5550928E-1,6.764245E-2,-6.931511E-2,-2.3930503E-1,1.8084836E-1,-6.6572145E-2,1.8268175E-1,-3.8374186E-2,1.4075227E-1,-8.298651E-3],"split_indices":[7,0,5,0,0,9,11,6,9,0,8,6,2,5,6,0,0,10,5,0,11,5,9,5,2,6,6,5,0,0,0,2,2,7,7,4,11,0,6,2,6,2,8,0,12,5,0,0,0,12,10,0,0,0,0,11,12,6,11,7,11,11,11,2,0,0,0,0,0,0,5,11,6,6,4,0,0,0,0,0,0,0,0,0,0,0,0,0,0,0,0,0,0,0,0,0,0,0,0,0,0,0,0,0,0,0,0,0,0,0,0,0,0,0,0,0,0,0,0,0,0,0,0],"split_type":[0,0,0,0,0,0,0,0,0,0,0,0,0,0,0,0,0,0,0,0,0,0,0,0,0,0,0,0,0,0,0,0,0,0,0,0,0,0,0,0,0,0,0,0,0,0,0,0,0,0,0,0,0,0,0,0,0,0,0,0,0,0,0,0,0,0,0,0,0,0,0,0,0,0,0,0,0,0,0,0,0,0,0,0,0,0,0,0,0,0,0,0,0,0,0,0,0,0,0,0,0,0,0,0,0,0,0,0,0,0,0,0,0,0,0,0,0,0,0,0,0,0,0],"sum_hessian":[4E2,5E0,3.95E2,1E0,4E0,3.77E2,1.8E1,1.1E2,2.67E2,5E0,1.3E1,2.7E1,8.3E1,6.2E1,2.05E2,3E0,2E0,9E0,4E0,1E0,2.6E1,1.7E1,6.6E1,5E1,1.2E1,9.3E1,1.12E2,8E0,1E0,1E0,3E0,6E0,2E1,5E0,1.2E1,5E1,1.6E1,3.5E1,1.5E1,5E0,7E0,8.3E1,1E1,1.9E1,9.3E1,7E0,1E0,2E0,4E0,1.4E1,6E0,2E0,3E0,6E0,6E0,1.5E1,3.5E1,8E0,8E0,2.4E1,1.1E1,5E0,1E1,3E0,2E0,5E0,2E0,7.6E1,7E0,2E0,8E0,1.2E1,7E0,1.4E1,7.9E1,2E0,5E0,2E0,1.2E1,4E0,2E0,4E0,2E0,4E0,2E0,1E1,5E0,8E0,2.7E1,2E0,6E0,3E0,5E0,1.6E1,8E0,7E0,4E0,2E0,3E0,4E0,6E0,1E0,2E0,4E0,1E0,1E0,1E0,3.2E1,4.4E1,3E0,4E0,1E0,1E0,5E0,3E0,7E0,5E0,4E0,3E0,1.1E1,3E0,9E0,7E1],"tree_param":{"num_deleted":"0","num_feature":"13","num_nodes":"123","size_leaf_vector":"0"}},{"base_weights":[1.00593105E-1,6.521348E-1,9.056428E-2,1.3265514E0,3.1864008E-1,7.844407E-2,3.2628822E-1,1.476638E-1,4.9373534E-2,5.28135E-1,2.1647617E-1,2.931957E-1,1.083953E-1,1.8643402E-2,1.7024158E-1,1.9073915E-1,8.019511E-1,3.067585E-1,-7.383728E-3,9.799569E-2,5.371561E-1,2.4823128E-1,5.2944608E-2,6.671845E-2,-9.258584E-2,3.576678E-1,-7.8944005E-2,4.326582E-1,1.9099317E-1,-1.3836288E-1,5.9951782E-2,-2.5487518E-1,1.4474538E-1,2.31781E-1,7.0210934E-1,9.1664505E-1,1.8218715E-1,-7.283077E-2,1.1462901E-1,-2.3394413E-1,9.938919E-2,-1.6618827E-1,1.874079E-1,2.13481E-1,7.4551976E-1,8.863926E-2,-4.2519045E-1,7.404455E-2,2.2296372E-1,1.27334595E-2,7.144674E-2,3.760612E-2,2.634735E-1,2.6317406E-1,5.31044E-2,2.4354616E-2,3.1386435E-1,-2.1796417E-1,2.5671482E-2,2.0302747E-1,-8.929825E-2,2.4286842E-1,-2.853499E-1,5.394022E-2,3.457078E-1,-2.6856422E-1,4.2108748E-2,-5.246459E-2,5.15982E-1,3.1801632E-1,-8.582143E-2,8.1157315E-1,1.4157295E-1,3.330698E-1,-1.157691E-1,-6.590853E-1,-2.6524305E-2,-2.873993E-2,1.1113715E-1,-5.6649525E-2,2.0052528E-1,1.809311E-2,3.659961E-1,-3.3895016E-2,-3.0434957E-1,-7.5032614E-2,2.2194538E-1,1.0899117E-1,5.0986755E-1,-2.8068215E-1,8.932495E-2,-3.2106832E-1,-1.1578679E-1,8.825902E-2,-4.9306092E-1,3.532831E-2,6.8359244E-1,1.0192275E-1,-3.6482605E-1,3.6023346E-1,-1.4697306E-1,-1.7805958E-1,1.4904404E-1,3.035736E-2,7.5120497E-1,1.5044233E-1,7.2362024E-1,-1.5204735E-1,5.3162258E-2,8.7031984E-1,2.2954655E-1,5.294223E-1,1.0937385E-1,-3.1202424E-1,1.2915134E-2,-8.206909E-1,-6.331444E-3,1.1836592E-1,-2.305975E-1],"categories":[],"categories_nodes":[],"categories_segments":[],"categories_sizes":[],"default_left":[true,true,true,false,false,true,true,true,true,true,true,true,true,true,true,false,false,true,true,true,true,true,true,true,true,true,true,false,true,false,true,false,true,true,false,false,true,true,true,true,true,true,true,true,true,true,true,false,false,false,false,true,false,false,false,true,true,true,true,true,true,false,true,true,true,true,true,true,true,true,true,true,false,true,true,true,true,false,false,false,false,false,false,false,false,false,false,false,false,false,false,false,false,false,false,false,false,false,false,false,false,false,false,false,false,false,false,false,false,false,false,false,false,false,false,false,false,false,false],"id":17,"left_children":[1,3,5,-1,-1,7,9,11,13,15,17,19,21,23,25,-1,-1,27,29,31,33,35,37,39,41,43,45,-1,47,-1,49,-1,51,53,-1,-1,55,57,59,61,63,65,67,69,71,73,75,-1,-1,-1,-1,77,-1,-1,-1,79,81,83,85,87,89,-1,91,93,95,97,99,101,103,105,107,109,-1,111,113,115,117,-1,-1,-1,-1,-1,-1,-1,-1,-1,-1,-1,-1,-1,-1,-1,-1,-1,-1,-1,-1,-1,-1,-1,-1,-1,-1,-1,-1,-1,-1,-1,-1,-1,-1,-1,-1,-1,-1,-1,-1,-1,-1],"loss_changes":[2.158996E0,1.1517081E0,1.1029289E0,0E0,0E0,7.513294E-1,3.0681014E-1,6.0256386E-1,9.885419E-1,4.01343E-1,2.8521335E-1,1.0426458E0,6.7696357E-1,1.1505103E0,2.5502472E0,0E0,0E0,6.311339E-2,5.239284E-2,2.678445E-1,3.409903E-1,9.3661904E-1,5.126431E-1,1.4966819E0,1.3706794E0,1.5744629E0,1.4302912E0,0E0,9.663135E-3,0E0,1.2613265E-3,0E0,1.5545756E-1,1.4070302E-2,0E0,0E0,4.9114662E-1,3.2010671E-1,8.1131166E-1,4.3696636E-1,1.5038624E0,1.1201884E0,1.1304932E0,7.781968E-1,2.0424509E-1,8.879412E-1,7.284857E-1,0E0,0E0,0E0,0E0,4.222202E-2,0E0,0E0,0E0,1.8260631E-1,1.9382596E-1,1.3279206E-1,2.9337135E-1,8.389063E-1,5.036704E-1,0E0,4.7615767E-2,2.221118E0,2.1781714E0,1.2854156E0,1.1356733E0,2.54315E-1,6.625757E-1,1.1145728E0,7.2513446E-2,3.956604E-2,0E0,2.93481E-1,2.5657922E-1,5.222471E-1,1.4556773E-1,0E0,0E0,0E0,0E0,0E0,0E0,0E0,0E0,0E0,0E0,0E0,0E0,0E0,0E0,0E0,0E0,0E0,0E0,0E0,0E0,0E0,0E0,0E0,0E0,0E0,0E0,0E0,0E0,0E0,0E0,0E0,0E0,0E0,0E0,0E0,0E0,0E0,0E0,0E0,0E0,0E0,0E0],"parents":[2147483647,0,0,1,1,2,2,5,5,6,6,7,7,8,8,9,9,10,10,11,11,12,12,13,13,14,14,17,17,18,18,19,19,20,20,21,21,22,22,23,23,24,24,25,25,26,26,28,28,30,30,32,32,33,33,36,36,37,37,38,38,39,39,40,40,41,41,42,42,43,43,44,44,45,45,46,46,51,51,55,55,56,56,57,57,58,58,59,59,60,60,62,62,63,63,64,64,65,65,66,66,67,67,68,68,69,69,70,70,71,71,73,73,74,74,75,75,76,76],"right_children":[2,4,6,-1,-1,8,10,12,14,16,18,20,22,24,26,-1,-1,28,30,32,34,36,38,40,42,44,46,-1,48,-1,50,-1,52,54,-1,-1,56,58,60,62,64,66,68,70,72,74,76,-1,-1,-1,-1,78,-1,-1,-1,80,82,84,86,88,90,-1,92,94,96,98,100,102,104,106,108,110,-1,112,114,116,118,-1,-1,-1,-1,-1,-1,-1,-1,-1,-1,-1,-1,-1,-1,-1,-1,-1,-1,-1,-1,-1,-1,-1,-1,-1,-1,-1,-1,-1,-1,-1,-1,-1,-1,-1,-1,-1,-1,-1,-1,-1,-1],"split_conditions":[1.3189499E0,7.403005E0,7.8255E0,3.9796546E-1,9.559203E-2,2.78E2,3.8479498E2,3.8813E2,4.345E2,3.80475E2,6E0,2.425E2,3.37E0,9.23E0,7.3170853E0,5.7221748E-2,2.4058534E-1,2.7595002E-2,8.1495E0,4.75E0,1.575E1,2.64925E0,2.375E2,3.69675E2,6.3025E0,4.548895E0,1.61145E0,1.2979746E-1,4.6649998E-1,-4.150887E-2,3.42135E-1,-7.646256E-2,1.905E2,7.24605E-1,2.1063282E-1,2.7499354E-1,3.7585998E0,3.9359998E2,6.792E0,5.5275E0,1.3635E1,1.57646E0,3.4250002E0,7.4399996E-1,9.85E1,1.55812E1,6.965E-1,2.2213366E-2,6.688912E-2,3.820038E-3,2.1434022E-2,1.7755001E1,7.9042055E-2,7.895222E-2,1.5931321E-2,8.655E1,3.4450002E0,3.8939502E2,5.6679497E0,6.462E0,7.1134996E0,7.286053E-2,1.9345001E1,8.7350006E1,3.92525E2,4.365E1,9.39E1,6.829E0,4.105E1,2.2992E0,3.85765E2,3.9616498E2,4.2471886E-2,6.8200004E-1,1.89758E1,1.1038275E1,1.028043E1,-8.6219795E-3,3.3341147E-2,-1.6994858E-2,6.0157586E-2,5.427933E-3,1.09798834E-1,-1.0168505E-2,-9.1304876E-2,-2.2509785E-2,6.658362E-2,3.2697354E-2,1.5296027E-1,-8.4204644E-2,2.6797486E-2,-9.63205E-2,-3.4736037E-2,2.6477708E-2,-1.4791828E-1,1.0598494E-2,2.0507774E-1,3.0576827E-2,-1.0944782E-1,1.0807004E-1,-4.4091918E-2,-5.3417876E-2,4.4713214E-2,9.107209E-3,2.253615E-1,4.51327E-2,2.1708608E-1,-4.5614205E-2,1.5948677E-2,2.6109597E-1,6.8863966E-2,1.588267E-1,3.2812156E-2,-9.360728E-2,3.8745406E-3,-2.4620727E-1,-1.8994332E-3,3.5509776E-2,-6.917925E-2],"split_indices":[7,0,5,0,0,9,11,11,9,11,8,9,2,2,0,0,0,0,5,6,10,7,9,11,5,0,7,0,4,0,0,0,9,0,0,0,7,11,5,5,12,0,7,4,6,0,4,0,0,0,0,12,0,0,0,6,12,11,7,5,5,0,12,6,11,6,6,5,6,7,11,11,0,4,0,0,0,0,0,0,0,0,0,0,0,0,0,0,0,0,0,0,0,0,0,0,0,0,0,0,0,0,0,0,0,0,0,0,0,0,0,0,0,0,0,0,0,0,0],"split_type":[0,0,0,0,0,0,0,0,0,0,0,0,0,0,0,0,0,0,0,0,0,0,0,0,0,0,0,0,0,0,0,0,0,0,0,0,0,0,0,0,0,0,0,0,0,0,0,0,0,0,0,0,0,0,0,0,0,0,0,0,0,0,0,0,0,0,0,0,0,0,0,0,0,0,0,0,0,0,0,0,0,0,0,0,0,0,0,0,0,0,0,0,0,0,0,0,0,0,0,0,0,0,0,0,0,0,0,0,0,0,0,0,0,0,0,0,0,0,0],"sum_hessian":[4E2,6E0,3.94E2,1E0,5E0,3.76E2,1.8E1,1.1E2,2.66E2,5E0,1.3E1,2.2E1,8.8E1,2.13E2,5.3E1,3E0,2E0,9E0,4E0,1.3E1,9E0,2.4E1,6.4E1,1.49E2,6.4E1,3E1,2.3E1,3E0,6E0,1E0,3E0,1E0,1.2E1,4E0,5E0,1E0,2.3E1,2.1E1,4.3E1,1.4E1,1.35E2,5.1E1,1.3E1,2.3E1,7E0,1.6E1,7E0,2E0,4E0,1E0,2E0,7E0,5E0,3E0,1E0,1.1E1,1.2E1,8E0,1.3E1,3E1,1.3E1,1E0,1.3E1,1.15E2,2E1,3.4E1,1.7E1,8E0,5E0,1.7E1,6E0,6E0,1E0,7E0,9E0,4E0,3E0,4E0,3E0,8E0,3E0,2E0,1E1,3E0,5E0,9E0,4E0,2.4E1,6E0,6E0,7E0,1E1,3E0,1.09E2,6E0,1.1E1,9E0,7E0,2.7E1,6E0,1.1E1,5E0,3E0,2E0,3E0,1.3E1,4E0,4E0,2E0,5E0,1E0,3E0,4E0,3E0,6E0,3E0,1E0,2E0,1E0],"tree_param":{"num_deleted":"0","num_feature":"13","num_nodes":"119","size_leaf_vector":"0"}},{"base_weights":[7.665714E-2,5.2700233E-1,6.8482265E-2,1.1275692E0,2.3897965E-1,-1.0317401E-2,9.7794354E-2,8.37485E-2,2.956581E-1,1.0570928E-1,-6.505546E-2,8.176515E-2,2.3813225E-1,3.1681123E-1,-4.246255E-3,6.9407145E-3,-1.7088121E-1,9.259516E-2,-2.3055999E-1,1.507393E-1,1.3425674E0,1.3841947E-2,5.3124046E-1,-1.1399109E-1,2.294923E-1,-1.10134274E-1,1.459852E-1,-2.5211433E-1,1.9607036E-1,6.974626E-2,2.1943507E-1,-4.5769373E-1,1.6778064E-1,2.967685E-1,-1.417901E-1,-2.1762848E-1,3.178552E-1,7.404232E-2,8.556285E-1,-3.577532E-1,-1.1467897E-2,2.7766022E-1,-5.384159E-2,6.305991E-2,-1.9534683E-1,2.8018174E-1,-2.9649163E-2,1.8782838E-1,-2.985367E-1,-1.08745575E-1,3.756647E-1,8.798524E-2,-3.1295127E-1,3.6347538E-1,-1.2294189E-1,-1.0724386E-1,-6.061077E-1,-6.75993E-2,2.687737E-1,-1.175429E-1,3.524253E-1,-2.3975264E-1,6.509185E-2,-2.551651E-1,-5.2509308E-2,3.3738995E-1,-1.2620354E-1,1.2033653E-1,-5.0735974E-1,-1.0034043E-1,7.904291E-2,6.5886974E-2,4.2001843E-1,-8.105414E-2,3.7830606E-1,-2.3115611E-1,1.8880081E-1,3.4701252E-1,-3.5981495E-2,5.0812084E-2,-1.2027283E-1,2.442789E-2,2.5731468E-1,-5.8237106E-1,-1.8733984E-1,-1.6190481E-1,-1.2135506E-3,5.006428E-1,3.6525726E-4,7.6999664E-2,8.0567616E-1,-8.9253426E-2,-5.187985E-1,6.305275E-1,1.6929604E-1,-3.296143E-1,3.7280655E-1,2.6283967E-1,8.928976E-1,-1.794815E-2,-2.737287E-1,-6.0996056E-2,1.2745316E-1,-1.5943193E-1,-2.9873371E-2,-1.910061E-1,8.42158E-2,1.2404362E-1,-9.548068E-2,7.645861E-2,1.7086029E-2,3.0406952E-2,-1.722517E-1,-2.789891E-1,6.911659E-2,4.833412E-2,4.1564035E-1,3.9360046E-2,-9.333229E-2,1.2769572E-1,-1.9553661E-2,-1.3486862E-2,-1.8696785E-1,-7.128563E-1,-2.1426709E-1,-3.2672492E-1,-1.1651993E-2,1.0320721E-1,-8.4708184E-2,-1.550579E-1,1.1988449E-1,7.304413E-1,-1.8430519E-1,-2.0235126E-1,2.323391E-1,-1.5313625E-3,-4.9340057E-1,4.485321E-2,6.783333E-1,5.3133136E-1,9.2495136E-2],"categories":[],"categories_nodes":[],"categories_segments":[],"categories_sizes":[],"default_left":[true,true,true,false,true,true,true,false,false,true,true,true,true,true,true,true,true,true,true,true,false,true,true,true,true,true,true,true,true,true,true,true,true,true,true,true,false,true,false,true,true,true,false,true,true,true,true,true,true,true,true,true,true,true,true,false,false,false,false,false,true,true,true,false,false,false,true,false,false,true,true,true,false,true,false,true,false,true,true,true,true,false,false,true,true,false,false,false,false,true,false,true,false,true,true,true,true,true,false,false,false,false,false,false,false,false,false,false,false,false,false,false,false,false,false,false,false,false,false,false,false,false,false,false,false,false,false,false,false,false,false,false,false,false,false,false,false,false,false,false,false],"id":18,"left_children":[1,3,5,-1,7,9,11,-1,-1,13,15,17,19,21,23,25,27,29,31,33,-1,35,37,39,41,43,45,47,49,51,53,55,57,59,61,63,-1,65,-1,67,69,71,-1,73,75,77,79,81,83,85,87,89,91,93,95,-1,-1,-1,-1,-1,97,99,101,-1,-1,-1,103,-1,-1,105,107,109,-1,111,-1,113,-1,115,117,119,121,-1,-1,123,125,-1,-1,-1,-1,127,-1,129,-1,131,133,135,137,139,-1,-1,-1,-1,-1,-1,-1,-1,-1,-1,-1,-1,-1,-1,-1,-1,-1,-1,-1,-1,-1,-1,-1,-1,-1,-1,-1,-1,-1,-1,-1,-1,-1,-1,-1,-1,-1,-1,-1,-1,-1,-1,-1],"loss_changes":[1.4401965E0,9.413719E-1,9.133735E-1,0E0,2.8028637E-2,6.927931E-1,6.2838626E-1,0E0,0E0,8.1375927E-1,5.6499565E-1,9.0079427E-1,2.5966978E0,7.722323E-1,6.417985E-1,7.486164E-1,9.436909E-1,7.1502924E-1,8.9108163E-1,1.238178E0,0E0,4.9139482E-1,9.7481453E-1,4.2074883E-1,1.2413052E-1,3.812765E-1,5.032671E-1,5.666528E-1,3.693112E-1,1.5282373E0,1.9186975E0,2.4706852E-1,1.1325589E-1,4.7955084E-1,2.1827276E-1,1.1393517E-2,0E0,2.5351688E-1,0E0,4.186808E-1,1.12502225E-1,1.8335992E-1,0E0,4.3954587E-1,2.7749532E-1,2.6603925E-1,7.902824E-2,2.7776636E-2,6.168132E-1,1.6952481E-2,1.874339E-1,1.5621185E0,4.1417122E-1,1.2933662E0,1.3523729E0,0E0,0E0,0E0,0E0,0E0,5.8842635E-1,4.7839344E-2,3.922617E-2,0E0,0E0,0E0,4.839923E-3,0E0,0E0,1.3321611E-1,6.681958E-2,7.572491E-4,0E0,7.639251E-2,0E0,2.490899E-1,0E0,1.8488693E-1,1.6636254E-2,3.495677E-2,3.3088855E-2,0E0,0E0,1.3545108E-1,4.3698168E-1,0E0,0E0,0E0,0E0,8.7328756E-1,0E0,1.01162314E-1,0E0,1.0301676E0,4.4532037E-1,4.8286378E-1,3.7036866E-1,6.8263185E-1,0E0,0E0,0E0,0E0,0E0,0E0,0E0,0E0,0E0,0E0,0E0,0E0,0E0,0E0,0E0,0E0,0E0,0E0,0E0,0E0,0E0,0E0,0E0,0E0,0E0,0E0,0E0,0E0,0E0,0E0,0E0,0E0,0E0,0E0,0E0,0E0,0E0,0E0,0E0,0E0,0E0,0E0,0E0],"parents":[2147483647,0,0,1,1,2,2,4,4,5,5,6,6,9,9,10,10,11,11,12,12,13,13,14,14,15,15,16,16,17,17,18,18,19,19,21,21,22,22,23,23,24,24,25,25,26,26,27,27,28,28,29,29,30,30,31,31,32,32,33,33,34,34,35,35,37,37,39,39,40,40,41,41,43,43,44,44,45,45,46,46,47,47,48,48,49,49,50,50,51,51,52,52,53,53,54,54,60,60,61,61,62,62,66,66,69,69,70,70,71,71,73,73,75,75,77,77,78,78,79,79,80,80,83,83,84,84,89,89,91,91,93,93,94,94,95,95,96,96,97,97],"right_children":[2,4,6,-1,8,10,12,-1,-1,14,16,18,20,22,24,26,28,30,32,34,-1,36,38,40,42,44,46,48,50,52,54,56,58,60,62,64,-1,66,-1,68,70,72,-1,74,76,78,80,82,84,86,88,90,92,94,96,-1,-1,-1,-1,-1,98,100,102,-1,-1,-1,104,-1,-1,106,108,110,-1,112,-1,114,-1,116,118,120,122,-1,-1,124,126,-1,-1,-1,-1,128,-1,130,-1,132,134,136,138,140,-1,-1,-1,-1,-1,-1,-1,-1,-1,-1,-1,-1,-1,-1,-1,-1,-1,-1,-1,-1,-1,-1,-1,-1,-1,-1,-1,-1,-1,-1,-1,-1,-1,-1,-1,-1,-1,-1,-1,-1,-1,-1,-1],"split_conditions":[1.3189499E0,7.403005E0,5.934E0,3.3827078E-1,5.3905E0,5.5935E0,9.605E1,2.512455E-2,8.869743E-2,3.6474E2,2.52775E-1,9.4100006E1,5.06275E0,1.3305E1,5.4605E0,1.3815E1,6.965E-1,5.2375495E-1,3.9516E2,9.8850006E1,4.0277025E-1,1.93E1,3.0093E2,1.43275E0,8.58975E0,5.9755E-2,8.0649994E1,2.7752502E2,5.6685E0,4.10045E-1,1.401E1,1.2059999E1,6.2485E0,1.333E1,6.5275E0,5.208E0,9.535657E-2,6.655E-1,2.5668857E-1,6.655E-1,9.795E1,3.9465E2,-1.6152479E-2,3.355E2,6.845E1,1.2255E1,5.8564997E0,1.388225E0,1.85E1,2.44451E0,5E-1,3.9208E-1,3.87655E2,5.41E-1,1.874E1,-3.217316E-2,-1.8183231E-1,-2.027979E-2,8.063211E-2,-3.526287E-2,2.2992E0,2.6340002E2,6.6008E-1,-7.654953E-2,-1.5752792E-2,1.0121699E-1,1.126579E1,3.610096E-2,-1.5220793E-1,3.017E1,3.1372799E1,1.006705E0,1.2600553E-1,1.75E1,1.13491826E-1,1.4704001E-1,5.6640245E-2,2.55E2,1.0501E-1,4E0,1.595E1,7.3283673E-3,7.719441E-2,1.72489E0,5.78E0,-4.8571445E-2,-3.6406517E-4,1.5019284E-1,1.0957718E-4,8.27E1,2.4170285E-1,4.9155E-1,-1.5563954E-1,5E-1,5.99E1,1.09412E0,6.855E-1,1.6972001E0,2.678693E-1,-5.384445E-3,-8.2118616E-2,-1.8298818E-2,3.823595E-2,-4.7829583E-2,-8.962012E-3,-5.730183E-2,2.526474E-2,3.7213087E-2,-2.8644206E-2,2.2937585E-2,5.125809E-3,9.122086E-3,-5.1675513E-2,-8.369674E-2,2.0734979E-2,1.4500237E-2,1.2469211E-1,1.18080145E-2,-2.7999688E-2,3.8308717E-2,-5.8660987E-3,-4.0460587E-3,-5.609036E-2,-2.1385689E-1,-6.428013E-2,-9.801748E-2,-3.495598E-3,3.0962164E-2,-2.5412457E-2,-4.6517372E-2,3.596535E-2,2.191324E-1,-5.529156E-2,-6.070538E-2,6.970173E-2,-4.5940877E-4,-1.4802018E-1,1.3455964E-2,2.0349999E-1,1.5939942E-1,2.7748542E-2],"split_indices":[7,0,5,0,5,5,6,0,0,11,0,6,7,12,5,12,4,0,11,6,0,10,11,7,0,0,6,11,5,0,12,12,5,2,5,5,0,4,0,4,6,11,0,9,6,2,5,0,10,0,3,0,11,4,12,0,0,0,0,0,7,11,0,0,0,0,0,0,0,12,0,0,0,1,0,0,0,9,0,8,2,0,0,0,5,0,0,0,0,6,0,0,0,3,6,0,4,7,0,0,0,0,0,0,0,0,0,0,0,0,0,0,0,0,0,0,0,0,0,0,0,0,0,0,0,0,0,0,0,0,0,0,0,0,0,0,0,0,0,0,0],"split_type":[0,0,0,0,0,0,0,0,0,0,0,0,0,0,0,0,0,0,0,0,0,0,0,0,0,0,0,0,0,0,0,0,0,0,0,0,0,0,0,0,0,0,0,0,0,0,0,0,0,0,0,0,0,0,0,0,0,0,0,0,0,0,0,0,0,0,0,0,0,0,0,0,0,0,0,0,0,0,0,0,0,0,0,0,0,0,0,0,0,0,0,0,0,0,0,0,0,0,0,0,0,0,0,0,0,0,0,0,0,0,0,0,0,0,0,0,0,0,0,0,0,0,0,0,0,0,0,0,0,0,0,0,0,0,0,0,0,0,0,0,0],"sum_hessian":[4E2,6E0,3.94E2,1E0,5E0,1.07E2,2.87E2,2E0,3E0,3.4E1,7.3E1,2.59E2,2.8E1,1.1E1,2.3E1,4.4E1,2.9E1,2.51E2,8E0,2.7E1,1E0,5E0,6E0,1.6E1,7E0,2.4E1,2E1,2.4E1,5E0,2.14E2,3.7E1,5E0,3E0,1.8E1,9E0,3E0,2E0,3E0,3E0,4E0,1.2E1,6E0,1E0,8E0,1.6E1,1.1E1,9E0,2E0,2.2E1,2E0,3E0,2.05E2,9E0,2.6E1,1.1E1,2E0,3E0,1E0,2E0,2E0,1.6E1,6E0,3E0,2E0,1E0,1E0,2E0,1E0,3E0,6E0,6E0,3E0,3E0,6E0,2E0,1.5E1,1E0,9E0,2E0,5E0,4E0,1E0,1E0,5E0,1.7E1,1E0,1E0,2E0,1E0,2.03E2,2E0,5E0,4E0,1E1,1.6E1,8E0,3E0,1.5E1,1E0,1E0,5E0,1E0,2E0,1E0,1E0,4E0,2E0,5E0,1E0,2E0,1E0,3E0,3E0,1.3E1,2E0,2E0,7E0,1E0,1E0,2E0,3E0,2E0,2E0,3E0,2E0,9E0,8E0,1.75E2,2.8E1,4E0,1E0,9E0,1E0,2E0,1.4E1,3E0,5E0,2E0,1E0,5E0,1E1],"tree_param":{"num_deleted":"0","num_feature":"13","num_nodes":"141","size_leaf_vector":"0"}},{"base_weights":[5.77607E-2,4.6604475E-1,5.1428717E-2,9.5843315E-1,1.7588043E-1,1.7754945E-1,4.0978987E-2,2.2613525E-1,6.69988E-2,2.6529077E-1,5.8324337E-2,3.4677524E-2,2.4176477E-1,7.6366615E-1,1.8641317E-1,3.0834198E-3,1.571413E-1,-8.621784E-2,5.603829E-2,3.3094725E-1,-1.06370926E-1,1.07893184E-1,2.7195412E-1,3.1227324E-2,-1.2510586E-1,2.0479965E-1,-1.6746044E-2,-6.205368E-2,-6.834593E-1,-1.3473082E-1,6.6406E-2,1.906632E-1,5.4796094E-1,4.9152374E-3,-1.6447163E-1,1.5908132E-1,-8.659363E-3,3.1895447E-1,1.0296885E-1,-2.5726637E-2,1.0885143E-1,-1.2307346E-1,2.9522983E-2,-1.7363821E-1,9.1747284E-2,4.919802E-2,3.5694218E-1,3.371226E-1,6.4654924E-2,2.1461526E-1,1.349767E-2,1.0382335E-2,-3.2892227E-2,3.345585E-2,-4.4254303E-2,-3.5446867E-1,-6.709403E-2,-6.1134443E-2,3.4998512E-1,-1.1102156E-1,-3.0242443E-1,2.6449203E-2,1.1117172E-1,5.3251773E-1,4.3686416E-2,-7.10339E-3,7.2187567E-1,-5.580902E-3,8.3609104E-2,1.9731522E-2,5.1498413E-4,1.640129E-2,-8.277893E-4,-6.184864E-2,1.3061523E-2,-9.164095E-2,-5.867494E-1,5.616069E-2,-1.1304121E-1,8.677101E-2,-2.5686264E-1,4.247465E-1,2.546978E-2,-1.7761149E-1,4.4086454E-3,8.137058E-2,-1.4291119E-2,2.1864967E-1,-2.3143578E-1,-4.4361115E-2,8.376754E-1],"categories":[],"categories_nodes":[],"categories_segments":[],"categories_sizes":[],"default_left":[true,true,true,false,true,true,true,false,false,true,true,true,true,false,true,true,true,true,true,true,true,true,true,true,false,false,false,true,false,true,true,true,false,false,false,true,true,false,false,true,false,true,true,true,true,true,true,false,true,false,true,true,false,false,true,true,true,true,true,true,false,false,false,false,true,true,true,false,false,false,false,false,false,false,false,false,false,false,false,false,false,false,false,false,false,false,false,false,false,false,false],"id":19,"left_children":[1,3,5,-1,7,9,11,-1,-1,13,15,17,19,-1,21,23,25,27,29,31,33,35,37,39,-1,-1,-1,41,-1,43,45,47,-1,-1,-1,49,51,-1,-1,53,-1,55,57,59,61,63,65,-1,67,-1,69,71,-1,-1,73,75,77,79,81,83,-1,-1,-1,-1,85,87,89,-1,-1,-1,-1,-1,-1,-1,-1,-1,-1,-1,-1,-1,-1,-1,-1,-1,-1,-1,-1,-1,-1,-1,-1],"loss_changes":[1.0127159E0,6.886717E-1,5.146235E-1,0E0,1.2208357E-2,2.9835612E-1,4.559608E-1,0E0,0E0,5.259237E-1,7.593782E-2,